<?xml version="1.0"?>
<opencv_storage>
<opencv_ml_svm>
  <format>3</format>
  <svmType>C_SVC</svmType>
  <kernel>
    <type>RBF</type>
    <gamma>1.</gamma></kernel>
  <C>35.</C>
  <term_criteria><epsilon>1.1920928955078125e-07</epsilon>
    <iterations>1000</iterations></term_criteria>
  <var_count>200</var_count>
  <class_count>2</class_count>
  <class_labels type_id="opencv-matrix">
    <rows>2</rows>
    <cols>1</cols>
    <dt>i</dt>
    <data>
      -1 1</data></class_labels>
  <sv_total>295</sv_total>
  <support_vectors>
    <_>
      0. 0. 0. 2.77777780e-02 0. 0. 0. 2.77777780e-02 0. 0. 0. 0. 0. 0.
      0. 0. 0. 0. 0. 0. 0. 0. 0. 0. 0. 0. 0. 0. 0. 0. 0. 0. 0. 0. 0. 0.
      2.77777780e-02 0. 0. 0. 0. 0. 0. 0. 0. 0. 0. 0. 0. 0. 0. 0. 0. 0.
      0. 0. 0. 0. 0. 0. 0. 0. 0. 2.77777780e-02 0. 0. 0. 2.77777780e-02
      0. 0. 0. 0. 0. 0. 2.77777780e-02 0. 0. 2.77777780e-02 0. 0. 0.
      2.77777780e-02 0. 0. 0. 0. 2.77777780e-02 0. 0. 0. 0. 0.
      2.77777780e-02 0. 0. 0. 0. 0. 0. 0. 0. 2.77777780e-02 0. 0. 0. 0.
      0. 0. 0. 0. 8.33333358e-02 0. 0. 0. 0. 0. 5.55555560e-02 0. 0. 0.
      0. 0. 0. 0. 0. 0. 0. 0. 0. 0. 0. 0. 0. 0. 0. 0. 0. 0. 0. 0. 0. 0.
      0. 2.77777780e-02 0. 0. 2.77777780e-02 2.77777780e-02
      2.77777780e-02 5.55555560e-02 0. 0. 0. 0. 0. 2.77777780e-02 0. 0.
      2.77777780e-02 0. 0. 0. 0. 0. 0. 0. 0. 0. 0. 0. 0. 2.77777780e-02
      0. 0. 0. 0. 0. 0. 0. 2.77777780e-02 0. 5.55555560e-02 0. 0. 0.
      2.77777780e-02 2.77777780e-02 0. 0. 0. 5.55555560e-02 0. 0. 0.
      2.77777780e-02 0. 2.77777780e-02 5.55555560e-02 0. 0.</_>
    <_>
      0. 1.49253728e-02 0. 0. 0. 0. 0. 2.98507456e-02 0. 0. 0. 0. 0. 0.
      0. 1.49253728e-02 0. 0. 0. 0. 0. 0. 0. 0. 0. 0. 1.49253728e-02 0.
      2.98507456e-02 0. 0. 0. 0. 1.49253728e-02 1.49253728e-02 0. 0.
      1.49253728e-02 0. 1.49253728e-02 0. 0. 0. 0. 1.49253728e-02 0. 0.
      0. 0. 0. 0. 0. 0. 0. 0. 0. 0. 0. 1.49253728e-02 0. 1.49253728e-02
      0. 0. 1.49253728e-02 1.49253728e-02 0. 4.47761193e-02 0. 0. 0. 0.
      0. 0. 0. 0. 0. 0. 1.49253728e-02 2.98507456e-02 1.49253728e-02 0.
      1.49253728e-02 0. 1.49253728e-02 1.49253728e-02 1.49253728e-02 0.
      1.49253728e-02 0. 1.49253728e-02 0. 1.49253728e-02 0. 0.
      1.49253728e-02 0. 0. 0. 0. 0. 2.98507456e-02 0. 0. 1.49253728e-02
      0. 0. 0. 0. 0. 0. 2.98507456e-02 0. 0. 1.49253728e-02 0.
      1.49253728e-02 1.49253728e-02 1.49253728e-02 0. 0. 0. 0. 0.
      1.49253728e-02 2.98507456e-02 1.49253728e-02 0. 0. 0. 0.
      1.49253728e-02 0. 0. 1.49253728e-02 1.49253728e-02 0.
      1.49253728e-02 0. 1.49253728e-02 0. 0. 0. 0. 0. 1.49253728e-02 0.
      0. 0. 0. 1.49253728e-02 0. 0. 0. 0. 0. 0. 0. 1.49253728e-02 0. 0.
      0. 0. 0. 0. 1.49253728e-02 0. 0. 1.49253728e-02 0. 1.49253728e-02
      0. 0. 0. 0. 1.49253728e-02 0. 1.49253728e-02 0. 0. 0.
      2.98507456e-02 0. 0. 0. 0. 0. 0. 2.98507456e-02 0. 0. 0. 0.
      2.98507456e-02 0. 0. 0. 1.49253728e-02 2.98507456e-02 0.
      1.49253728e-02</_>
    <_>
      0. 0. 0. 0. 0. 2.32558139e-02 0. 2.32558139e-02 0. 0.
      2.32558139e-02 2.32558139e-02 2.32558139e-02 0. 0. 0. 0. 0. 0.
      2.32558139e-02 0. 0. 0. 0. 0. 0. 0. 0. 0. 0. 2.32558139e-02 0. 0.
      0. 0. 2.32558139e-02 0. 0. 0. 0. 0. 0. 0. 0. 0. 0. 0.
      2.32558139e-02 0. 0. 4.65116277e-02 0. 2.32558139e-02 0. 0. 0. 0.
      0. 0. 0. 0. 2.32558139e-02 2.32558139e-02 0. 0. 0. 0. 0. 0. 0. 0.
      0. 0. 0. 0. 0. 2.32558139e-02 0. 0. 0. 0. 0. 0. 0. 0. 0.
      6.97674453e-02 0. 0. 0. 0. 0. 0. 2.32558139e-02 0. 0. 0.
      2.32558139e-02 0. 0. 0. 6.97674453e-02 2.32558139e-02 0. 0. 0. 0.
      0. 0. 4.65116277e-02 0. 0. 0. 0. 0. 0. 2.32558139e-02 0. 0. 0. 0.
      0. 0. 0. 0. 0. 0. 0. 0. 0. 0. 0. 0. 0. 0. 0. 0. 2.32558139e-02 0.
      0. 0. 0. 0. 0. 0. 0. 0. 0. 2.32558139e-02 4.65116277e-02 0. 0. 0.
      2.32558139e-02 0. 0. 0. 0. 2.32558139e-02 0. 0. 0. 0.
      9.30232555e-02 0. 0. 0. 0. 2.32558139e-02 0. 0. 0. 0. 0. 0. 0. 0.
      2.32558139e-02 0. 0. 0. 2.32558139e-02 0. 0. 0. 4.65116277e-02 0.
      0. 0. 0. 0. 0. 0. 0. 0. 0. 2.32558139e-02 0. 0. 0.</_>
    <_>
      0. 0. 3.44827585e-02 3.44827585e-02 0. 0. 0. 0. 0. 0. 0. 0. 0. 0.
      0. 0. 0. 0. 0. 0. 0. 0. 0. 0. 0. 0. 0. 0. 0. 3.44827585e-02 0. 0.
      0. 0. 0. 3.44827585e-02 0. 0. 0. 0. 0. 0. 3.44827585e-02 0. 0. 0.
      0. 0. 3.44827585e-02 0. 3.44827585e-02 0. 0. 0. 0. 0. 0. 0. 0. 0.
      0. 0. 0. 3.44827585e-02 0. 0. 0. 0. 0. 0. 0. 0. 0. 0. 0. 0. 0.
      3.44827585e-02 0. 0. 0. 0. 0. 0. 0. 0. 3.44827585e-02 0.
      3.44827585e-02 0. 0. 0. 0. 0. 0. 0. 0. 3.44827585e-02 0. 0. 0. 0.
      3.44827585e-02 0. 0. 0. 0. 0. 0. 0. 0. 0. 0. 0. 0. 0.
      3.44827585e-02 0. 0. 0. 0. 6.89655170e-02 6.89655170e-02 0. 0. 0.
      0. 0. 0. 0. 0. 3.44827585e-02 0. 0. 0. 0. 0. 0. 0. 0. 0. 0. 0. 0.
      0. 0. 0. 0. 0. 6.89655170e-02 0. 0. 0. 0. 0. 0. 0. 3.44827585e-02
      0. 0. 0. 0. 0. 0. 0. 0. 0. 0. 3.44827585e-02 0. 0. 3.44827585e-02
      0. 0. 0. 0. 0. 3.44827585e-02 3.44827585e-02 0. 0. 3.44827585e-02
      0. 0. 0. 3.44827585e-02 0. 0. 3.44827585e-02 0. 0. 0. 0. 0. 0. 0.
      0. 0. 0. 0.</_>
    <_>
      0. 2.27272734e-02 2.27272734e-02 0. 2.27272734e-02 0. 0. 0. 0. 0.
      0. 0. 0. 0. 2.27272734e-02 0. 2.27272734e-02 0. 0. 0. 0. 0. 0. 0.
      0. 0. 2.27272734e-02 0. 0. 0. 0. 0. 0. 0. 2.27272734e-02 0. 0. 0.
      2.27272734e-02 0. 0. 0. 0. 2.27272734e-02 0. 0. 0. 2.27272734e-02
      2.27272734e-02 0. 0. 0. 0. 0. 0. 2.27272734e-02 0. 0. 0. 0. 0. 0.
      0. 0. 0. 0. 0. 0. 0. 0. 0. 2.27272734e-02 0. 0. 2.27272734e-02
      2.27272734e-02 0. 0. 0. 4.54545468e-02 0. 0. 0. 2.27272734e-02 0.
      2.27272734e-02 0. 0. 0. 0. 0. 4.54545468e-02 0. 0. 0. 0. 0.
      2.27272734e-02 2.27272734e-02 0. 0. 0. 0. 0. 0. 2.27272734e-02 0.
      0. 0. 0. 2.27272734e-02 0. 0. 0. 0. 0. 2.27272734e-02 0. 0. 0. 0.
      0. 2.27272734e-02 0. 0. 0. 0. 0. 0. 0. 0. 2.27272734e-02 0. 0. 0.
      0. 2.27272734e-02 0. 0. 2.27272734e-02 0. 0. 0. 0. 0. 0. 0. 0. 0.
      0. 0. 0. 4.54545468e-02 0. 0. 0. 2.27272734e-02 0. 0. 0. 0.
      2.27272734e-02 2.27272734e-02 0. 2.27272734e-02 0. 0.
      2.27272734e-02 0. 0. 0. 0. 0. 0. 0. 0. 0. 0. 2.27272734e-02 0. 0.
      2.27272734e-02 0. 0. 2.27272734e-02 2.27272734e-02 0. 0. 0. 0.
      2.27272734e-02 0. 0. 0. 0. 4.54545468e-02 0. 0. 0. 0.</_>
    <_>
      0. 0. 0. 6.81818202e-02 0. 0. 0. 0. 0. 0. 0. 0. 0. 4.54545468e-02
      0. 0. 0. 0. 0. 0. 0. 0. 0. 2.27272734e-02 2.27272734e-02
      4.54545468e-02 0. 0. 0. 0. 0. 2.27272734e-02 0. 0. 0. 0.
      2.27272734e-02 0. 0. 0. 2.27272734e-02 0. 2.27272734e-02 0. 0. 0.
      0. 0. 0. 0. 0. 0. 0. 0. 0. 0. 0. 0. 0. 0. 4.54545468e-02 0. 0. 0.
      0. 0. 0. 0. 4.54545468e-02 0. 0. 0. 2.27272734e-02 0. 0. 0. 0. 0.
      0. 0. 0. 0. 2.27272734e-02 0. 0. 0. 0. 0. 0. 0. 0. 0. 0. 0. 0. 0.
      0. 0. 0. 0. 0. 0. 0. 0. 0. 0. 0. 2.27272734e-02 2.27272734e-02 0.
      4.54545468e-02 0. 0. 0. 0. 0. 0. 0. 0. 0. 2.27272734e-02 0. 0. 0.
      2.27272734e-02 0. 0. 0. 2.27272734e-02 0. 0. 0. 0. 0. 0. 0. 0.
      6.81818202e-02 0. 0. 0. 2.27272734e-02 0. 0. 0. 2.27272734e-02 0.
      0. 0. 2.27272734e-02 0. 0. 0. 2.27272734e-02 0. 0. 0. 0.
      2.27272734e-02 0. 0. 0. 0. 0. 0. 0. 4.54545468e-02 2.27272734e-02
      0. 2.27272734e-02 2.27272734e-02 2.27272734e-02 0. 0. 0. 0. 0. 0.
      0. 4.54545468e-02 2.27272734e-02 0. 0. 0. 0. 0. 0. 0. 0. 0. 0. 0.
      0. 0. 0. 2.27272734e-02 0. 0. 0. 0.</_>
    <_>
      1.38888890e-02 0. 0. 1.38888890e-02 1.38888890e-02 0. 0. 0. 0.
      1.38888890e-02 1.38888890e-02 1.38888890e-02 1.38888890e-02 0. 0.
      2.77777780e-02 0. 1.38888890e-02 0. 0. 1.38888890e-02 0. 0. 0. 0.
      0. 0. 0. 0. 0. 1.38888890e-02 0. 2.77777780e-02 1.38888890e-02 0.
      0. 0. 0. 0. 0. 0. 0. 0. 0. 2.77777780e-02 1.38888890e-02 0.
      1.38888890e-02 1.38888890e-02 1.38888890e-02 2.77777780e-02 0. 0.
      0. 0. 0. 0. 0. 0. 0. 0. 0. 1.38888890e-02 1.38888890e-02 0.
      1.38888890e-02 1.38888890e-02 0. 0. 0. 1.38888890e-02 0. 0. 0. 0.
      0. 0. 2.77777780e-02 0. 0. 0. 0. 0. 0. 1.38888890e-02 0. 0. 0. 0.
      0. 1.38888890e-02 0. 0. 0. 0. 0. 0. 0. 0. 0. 1.38888890e-02 0. 0.
      0. 0. 0. 1.38888890e-02 0. 0. 0. 0. 0. 0. 1.38888890e-02
      1.38888890e-02 2.77777780e-02 1.38888890e-02 1.38888890e-02 0. 0.
      1.38888890e-02 0. 0. 0. 1.38888890e-02 0. 0. 0. 0. 0.
      1.38888890e-02 4.16666679e-02 0. 1.38888890e-02 0. 0.
      2.77777780e-02 0. 0. 0. 0. 0. 1.38888890e-02 0. 0. 1.38888890e-02
      0. 0. 1.38888890e-02 0. 0. 1.38888890e-02 1.38888890e-02
      1.38888890e-02 1.38888890e-02 0. 1.38888890e-02 0. 0.
      1.38888890e-02 1.38888890e-02 0. 2.77777780e-02 0. 0. 0. 0. 0. 0.
      0. 1.38888890e-02 0. 0. 1.38888890e-02 0. 0. 0. 0. 0. 0. 0.
      1.38888890e-02 1.38888890e-02 0. 1.38888890e-02 0. 0.
      2.77777780e-02 0. 0. 0. 0. 4.16666679e-02 1.38888890e-02 0. 0. 0.
      0. 0. 0.</_>
    <_>
      0. 0. 0. 0. 0. 0. 0. 0. 0. 0. 2.38095243e-02 0. 0. 0. 0. 0.
      2.38095243e-02 0. 0. 0. 2.38095243e-02 0. 0. 0. 0. 0. 0. 0.
      2.38095243e-02 0. 0. 0. 0. 0. 0. 2.38095243e-02 0. 2.38095243e-02
      0. 2.38095243e-02 0. 0. 0. 0. 0. 0. 4.76190485e-02 0. 0. 0. 0.
      2.38095243e-02 0. 2.38095243e-02 0. 0. 0. 0. 0. 2.38095243e-02 0.
      0. 2.38095243e-02 0. 0. 0. 0. 2.38095243e-02 0. 0. 0.
      2.38095243e-02 0. 0. 0. 0. 2.38095243e-02 0. 0. 2.38095243e-02 0.
      2.38095243e-02 2.38095243e-02 0. 0. 0. 0. 2.38095243e-02 0.
      2.38095243e-02 0. 0. 0. 0. 0. 0. 0. 2.38095243e-02 0. 0.
      2.38095243e-02 2.38095243e-02 2.38095243e-02 0. 2.38095243e-02 0.
      2.38095243e-02 0. 0. 2.38095243e-02 0. 0. 2.38095243e-02 0. 0. 0.
      4.76190485e-02 0. 0. 0. 0. 0. 0. 2.38095243e-02 0. 2.38095243e-02
      0. 0. 2.38095243e-02 0. 0. 0. 0. 0. 0. 0. 0. 0. 0. 0. 0. 0. 0. 0.
      0. 0. 0. 0. 0. 0. 0. 2.38095243e-02 0. 0. 0. 0. 0. 0. 0. 0. 0. 0.
      0. 0. 0. 0. 0. 0. 2.38095243e-02 4.76190485e-02 2.38095243e-02 0.
      0. 0. 0. 0. 0. 0. 0. 0. 0. 0. 2.38095243e-02 0. 0. 0. 0. 0. 0. 0.
      0. 0. 2.38095243e-02 0. 0. 0. 0. 0. 0. 2.38095243e-02</_>
    <_>
      0. 4.16666679e-02 0. 0. 0. 2.08333340e-02 0. 0. 2.08333340e-02
      2.08333340e-02 0. 0. 0. 0. 0. 2.08333340e-02 0. 2.08333340e-02 0.
      0. 2.08333340e-02 0. 0. 0. 0. 0. 2.08333340e-02 0. 0. 0. 0. 0. 0.
      2.08333340e-02 0. 0. 0. 0. 0. 0. 0. 0. 0. 2.08333340e-02 0. 0. 0.
      2.08333340e-02 0. 4.16666679e-02 2.08333340e-02 0. 0. 0.
      2.08333340e-02 0. 2.08333340e-02 0. 0. 0. 0. 0. 4.16666679e-02 0.
      0. 0. 0. 0. 0. 0. 2.08333340e-02 0. 2.08333340e-02 0. 0. 0. 0.
      2.08333340e-02 4.16666679e-02 0. 0. 0. 0. 0. 0. 0. 0.
      2.08333340e-02 0. 0. 0. 2.08333340e-02 0. 0. 0. 0. 0. 0.
      2.08333340e-02 0. 0. 0. 0. 0. 0. 0. 0. 0. 0. 0. 2.08333340e-02 0.
      0. 0. 0. 0. 6.25000000e-02 0. 0. 0. 0. 0. 0. 0. 0. 0. 0. 0. 0.
      2.08333340e-02 0. 0. 0. 0. 0. 0. 0. 0. 0. 2.08333340e-02 0.
      2.08333340e-02 0. 0. 0. 0. 0. 0. 0. 0. 2.08333340e-02 0. 0. 0. 0.
      0. 0. 4.16666679e-02 0. 2.08333340e-02 0. 0. 2.08333340e-02 0.
      2.08333340e-02 0. 0. 0. 0. 2.08333340e-02 2.08333340e-02 0. 0. 0.
      0. 2.08333340e-02 0. 2.08333340e-02 0. 0. 4.16666679e-02 0. 0. 0.
      0. 0. 0. 0. 0. 0. 0. 0. 2.08333340e-02 2.08333340e-02 0. 0. 0. 0.
      0. 0.</_>
    <_>
      0. 0. 2.38095243e-02 0. 0. 2.38095243e-02 0. 0. 0. 0. 0. 0.
      2.38095243e-02 0. 4.76190485e-02 2.38095243e-02 0. 2.38095243e-02
      2.38095243e-02 0. 0. 2.38095243e-02 2.38095243e-02 2.38095243e-02
      0. 2.38095243e-02 0. 0. 2.38095243e-02 0. 0. 2.38095243e-02 0. 0.
      0. 0. 0. 0. 2.38095243e-02 0. 0. 0. 0. 0. 0. 0. 0. 0. 0. 0. 0. 0.
      0. 0. 2.38095243e-02 0. 0. 0. 2.38095243e-02 0. 0. 0. 0. 0.
      2.38095243e-02 0. 0. 2.38095243e-02 2.38095243e-02 0.
      2.38095243e-02 0. 2.38095243e-02 0. 0. 0. 0. 0. 7.14285746e-02
      2.38095243e-02 0. 0. 0. 2.38095243e-02 0. 0. 4.76190485e-02 0. 0.
      0. 0. 0. 0. 2.38095243e-02 0. 0. 0. 0. 0. 0. 0. 0. 0. 0. 0. 0. 0.
      0. 0. 0. 0. 0. 2.38095243e-02 0. 0. 0. 0. 0. 0. 0. 0. 0. 0. 0. 0.
      0. 0. 0. 0. 0. 0. 0. 0. 0. 0. 2.38095243e-02 0. 0. 0.
      2.38095243e-02 0. 0. 2.38095243e-02 4.76190485e-02 0. 0.
      2.38095243e-02 0. 0. 0. 0. 0. 0. 2.38095243e-02 0. 0. 0. 0.
      2.38095243e-02 0. 0. 0. 0. 0. 0. 0. 0. 0. 0. 0. 0. 0. 0. 0.
      2.38095243e-02 0. 0. 0. 0. 0. 0. 0. 0. 0. 0. 0. 0. 0. 0. 0. 0. 0.
      0. 0. 0. 2.38095243e-02 0. 2.38095243e-02 0. 0.</_>
    <_>
      0. 0. 0. 0. 0. 0. 0. 0. 0. 2.17391308e-02 4.34782617e-02 0.
      2.17391308e-02 0. 2.17391308e-02 2.17391308e-02 0. 0. 0. 0.
      2.17391308e-02 0. 0. 2.17391308e-02 0. 0. 0. 0. 0. 0. 0. 0. 0. 0.
      0. 0. 0. 4.34782617e-02 0. 2.17391308e-02 2.17391308e-02
      2.17391308e-02 0. 0. 0. 0. 0. 0. 0. 0. 0. 0. 0. 0. 0. 0. 0. 0. 0.
      0. 0. 2.17391308e-02 0. 2.17391308e-02 0. 2.17391308e-02 0. 0.
      4.34782617e-02 4.34782617e-02 0. 0. 0. 4.34782617e-02 0. 0.
      2.17391308e-02 0. 0. 0. 0. 2.17391308e-02 0. 0. 2.17391308e-02 0.
      0. 0. 0. 0. 0. 2.17391308e-02 0. 0. 0. 2.17391308e-02 0. 0.
      2.17391308e-02 0. 2.17391308e-02 2.17391308e-02 0. 0. 0. 0. 0. 0.
      0. 2.17391308e-02 0. 0. 2.17391308e-02 0. 0. 0. 0. 0. 0.
      2.17391308e-02 2.17391308e-02 0. 0. 0. 0. 2.17391308e-02 0. 0. 0.
      0. 0. 0. 2.17391308e-02 0. 0. 0. 0. 0. 0. 0. 0. 0. 2.17391308e-02
      0. 0. 0. 2.17391308e-02 0. 2.17391308e-02 0. 0. 0. 0.
      2.17391308e-02 0. 0. 0. 0. 0. 2.17391308e-02 0. 0. 0. 0. 0. 0. 0.
      0. 0. 0. 0. 0. 0. 0. 0. 0. 0. 6.52173907e-02 0. 0. 4.34782617e-02
      0. 0. 0. 0. 0. 0. 0. 0. 0. 0. 0. 0. 0. 0. 0. 0. 0. 0. 0.</_>
    <_>
      0. 2.27272734e-02 0. 0. 0. 2.27272734e-02 0. 2.27272734e-02 0. 0.
      0. 0. 0. 0. 0. 0. 0. 0. 0. 2.27272734e-02 0. 0. 0. 0. 0.
      2.27272734e-02 0. 2.27272734e-02 0. 0. 0. 0. 0. 0. 0. 0.
      2.27272734e-02 0. 0. 0. 0. 0. 0. 0. 2.27272734e-02 0. 0. 0.
      2.27272734e-02 0. 0. 0. 0. 0. 0. 0. 0. 2.27272734e-02 0. 0.
      2.27272734e-02 0. 0. 0. 0. 0. 0. 4.54545468e-02 0. 2.27272734e-02
      4.54545468e-02 0. 0. 0. 0. 0. 0. 0. 0. 4.54545468e-02 0. 0. 0. 0.
      0. 0. 0. 0. 0. 0. 2.27272734e-02 0. 0. 4.54545468e-02 0. 0. 0. 0.
      0. 0. 0. 0. 4.54545468e-02 0. 0. 0. 0. 0. 0. 0. 0. 0. 0. 0. 0. 0.
      0. 0. 2.27272734e-02 0. 0. 2.27272734e-02 0. 0. 0. 0. 0. 0. 0.
      2.27272734e-02 0. 0. 2.27272734e-02 0. 0. 0. 0. 0. 0. 0. 0.
      6.81818202e-02 0. 2.27272734e-02 0. 0. 0. 0. 0. 4.54545468e-02
      2.27272734e-02 0. 0. 2.27272734e-02 2.27272734e-02 2.27272734e-02
      0. 4.54545468e-02 0. 0. 0. 0. 0. 0. 0. 0. 0. 0. 0. 0. 0. 0. 0. 0.
      0. 0. 0. 0. 0. 0. 0. 2.27272734e-02 0. 0. 2.27272734e-02 0. 0. 0.
      0. 0. 0. 2.27272734e-02 0. 0. 0. 0. 2.27272734e-02 2.27272734e-02
      0. 0.</_>
    <_>
      0. 0. 0. 0. 0. 0. 0. 0. 0. 1.20481923e-02 0. 0. 1.20481923e-02 0.
      3.61445770e-02 0. 0. 0. 0. 1.20481923e-02 0. 2.40963846e-02 0. 0.
      0. 0. 1.20481923e-02 1.20481923e-02 1.20481923e-02 0.
      1.20481923e-02 0. 0. 0. 0. 0. 0. 1.20481923e-02 1.20481923e-02 0.
      0. 0. 0. 1.20481923e-02 0. 0. 0. 0. 1.20481923e-02 1.20481923e-02
      0. 1.20481923e-02 1.20481923e-02 0. 1.20481923e-02 1.20481923e-02
      0. 0. 0. 0. 0. 0. 0. 0. 0. 0. 1.20481923e-02 0. 0. 0.
      1.20481923e-02 0. 0. 0. 0. 1.20481923e-02 0. 1.20481923e-02 0. 0.
      0. 0. 1.20481923e-02 0. 0. 0. 1.20481923e-02 2.40963846e-02 0.
      1.20481923e-02 0. 0. 0. 1.20481923e-02 0. 1.20481923e-02
      1.20481923e-02 1.20481923e-02 1.20481923e-02 1.20481923e-02 0.
      1.20481923e-02 1.20481923e-02 1.20481923e-02 0. 1.20481923e-02
      1.20481923e-02 1.20481923e-02 0. 0. 1.20481923e-02 0.
      1.20481923e-02 0. 1.20481923e-02 0. 1.20481923e-02 0. 0. 0.
      1.20481923e-02 1.20481923e-02 0. 1.20481923e-02 0. 0. 0. 0. 0.
      1.20481923e-02 0. 0. 0. 1.20481923e-02 0. 0. 0. 2.40963846e-02 0.
      0. 0. 0. 0. 1.20481923e-02 0. 0. 3.61445770e-02 0. 1.20481923e-02
      3.61445770e-02 1.20481923e-02 0. 0. 3.61445770e-02 0. 0.
      1.20481923e-02 0. 0. 0. 0. 1.20481923e-02 1.20481923e-02 0. 0. 0.
      0. 1.20481923e-02 0. 0. 0. 0. 0. 1.20481923e-02 0. 0.
      1.20481923e-02 2.40963846e-02 0. 0. 1.20481923e-02 1.20481923e-02
      0. 0. 0. 1.20481923e-02 0. 0. 0. 0. 1.20481923e-02 0.
      1.20481923e-02 1.20481923e-02 0. 0. 2.40963846e-02 2.40963846e-02
      0. 0.</_>
    <_>
      0. 0. 0. 0. 0. 0. 0. 0. 0. 0. 1.21951215e-02 0. 0. 0.
      1.21951215e-02 0. 0. 1.21951215e-02 1.21951215e-02 0. 0. 0.
      2.43902430e-02 0. 0. 0. 1.21951215e-02 0. 1.21951215e-02 0.
      1.21951215e-02 0. 0. 1.21951215e-02 1.21951215e-02 0. 0.
      1.21951215e-02 1.21951215e-02 0. 1.21951215e-02 1.21951215e-02 0.
      0. 1.21951215e-02 0. 2.43902430e-02 0. 0. 0. 0. 0. 0. 0. 0.
      1.21951215e-02 0. 2.43902430e-02 0. 1.21951215e-02 0. 0. 0. 0.
      3.65853645e-02 0. 0. 0. 0. 2.43902430e-02 0. 0. 1.21951215e-02 0.
      0. 0. 4.87804860e-02 0. 2.43902430e-02 0. 0. 0. 1.21951215e-02 0.
      0. 1.21951215e-02 0. 1.21951215e-02 0. 1.21951215e-02 0.
      1.21951215e-02 0. 0. 0. 0. 1.21951215e-02 0. 1.21951215e-02 0. 0.
      0. 0. 0. 0. 1.21951215e-02 1.21951215e-02 1.21951215e-02 0. 0. 0.
      7.31707290e-02 0. 0. 1.21951215e-02 1.21951215e-02 0. 0. 0. 0.
      1.21951215e-02 0. 1.21951215e-02 0. 0. 1.21951215e-02
      1.21951215e-02 0. 0. 0. 0. 0. 0. 1.21951215e-02 0. 1.21951215e-02
      0. 0. 0. 0. 0. 0. 0. 1.21951215e-02 0. 0. 2.43902430e-02
      1.21951215e-02 1.21951215e-02 0. 1.21951215e-02 1.21951215e-02 0.
      0. 0. 0. 0. 3.65853645e-02 0. 1.21951215e-02 0. 0. 0. 0. 0. 0.
      1.21951215e-02 0. 0. 0. 1.21951215e-02 0. 0. 2.43902430e-02 0. 0.
      0. 0. 0. 1.21951215e-02 0. 0. 2.43902430e-02 0. 0. 0. 0. 0. 0. 0.
      0. 3.65853645e-02 0. 1.21951215e-02 0. 0. 0. 1.21951215e-02
      1.21951215e-02 0.</_>
    <_>
      1.58730168e-02 1.58730168e-02 0. 0. 0. 0. 3.17460336e-02 0.
      1.58730168e-02 1.58730168e-02 1.58730168e-02 0. 0. 1.58730168e-02
      0. 1.58730168e-02 0. 0. 0. 1.58730168e-02 0. 0. 0. 0.
      1.58730168e-02 1.58730168e-02 0. 0. 0. 0. 0. 1.58730168e-02
      4.76190522e-02 0. 0. 1.58730168e-02 1.58730168e-02 0. 0. 0. 0. 0.
      0. 0. 0. 0. 0. 3.17460336e-02 1.58730168e-02 0. 0. 1.58730168e-02
      0. 0. 1.58730168e-02 1.58730168e-02 0. 0. 0. 0. 0. 0. 0. 0. 0.
      3.17460336e-02 1.58730168e-02 0. 0. 0. 1.58730168e-02 0. 0. 0. 0.
      0. 0. 0. 0. 0. 0. 0. 1.58730168e-02 0. 1.58730168e-02
      1.58730168e-02 0. 0. 1.58730168e-02 1.58730168e-02 1.58730168e-02
      0. 0. 1.58730168e-02 0. 1.58730168e-02 0. 0. 0. 0. 0.
      1.58730168e-02 0. 0. 0. 0. 1.58730168e-02 0. 0. 0. 0.
      1.58730168e-02 0. 0. 1.58730168e-02 0. 0. 0. 0. 0. 0.
      1.58730168e-02 0. 0. 0. 0. 0. 0. 0. 1.58730168e-02 0.
      1.58730168e-02 0. 1.58730168e-02 0. 0. 0. 0. 0. 0. 0.
      1.58730168e-02 0. 0. 0. 0. 0. 0. 0. 1.58730168e-02 0. 0. 0. 0. 0.
      0. 1.58730168e-02 0. 1.58730168e-02 0. 0. 0. 1.58730168e-02
      1.58730168e-02 0. 0. 0. 1.58730168e-02 0. 0. 1.58730168e-02 0.
      1.58730168e-02 0. 0. 0. 1.58730168e-02 1.58730168e-02
      1.58730168e-02 0. 0. 1.58730168e-02 1.58730168e-02 0.
      1.58730168e-02 0. 0. 1.58730168e-02 1.58730168e-02 0. 0.
      1.58730168e-02 0. 0. 0. 0. 1.58730168e-02 0. 0. 0.</_>
    <_>
      0. 0. 0. 1.72413792e-02 1.72413792e-02 0. 3.44827585e-02
      1.72413792e-02 0. 0. 6.89655170e-02 1.72413792e-02 1.72413792e-02
      1.72413792e-02 0. 0. 0. 1.72413792e-02 1.72413792e-02 0. 0. 0. 0.
      0. 1.72413792e-02 0. 0. 0. 0. 0. 0. 0. 0. 0. 0. 0. 0. 0. 0. 0. 0.
      0. 0. 0. 0. 0. 0. 0. 0. 0. 0. 0. 3.44827585e-02 0. 0. 0. 0. 0. 0.
      0. 0. 0. 0. 0. 0. 0. 0. 0. 0. 0. 0. 0. 0. 0. 1.72413792e-02 0.
      1.72413792e-02 0. 1.72413792e-02 0. 1.72413792e-02 0. 0. 0. 0. 0.
      0. 1.72413792e-02 0. 0. 0. 0. 0. 1.72413792e-02 0. 0.
      1.72413792e-02 1.72413792e-02 0. 0. 0. 1.72413792e-02
      1.72413792e-02 0. 1.72413792e-02 0. 0. 1.72413792e-02 0.
      1.72413792e-02 1.72413792e-02 0. 0. 0. 1.72413792e-02 0. 0. 0. 0.
      1.72413792e-02 0. 0. 1.72413792e-02 0. 1.72413792e-02
      1.72413792e-02 1.72413792e-02 0. 0. 0. 1.72413792e-02 0. 0.
      1.72413792e-02 3.44827585e-02 1.72413792e-02 0. 0. 3.44827585e-02
      0. 0. 0. 0. 0. 0. 0. 0. 0. 0. 0. 0. 0. 0. 0. 0. 3.44827585e-02 0.
      1.72413792e-02 1.72413792e-02 0. 0. 0. 0. 0. 0. 0. 0.
      1.72413792e-02 0. 0. 1.72413792e-02 0. 0. 1.72413792e-02
      1.72413792e-02 0. 0. 0. 0. 1.72413792e-02 0. 0. 0. 0. 0. 0. 0. 0.
      0. 0. 0. 1.72413792e-02 0. 1.72413792e-02 0. 0. 1.72413792e-02 0.
      1.72413792e-02 1.72413792e-02</_>
    <_>
      0. 0. 0. 5.71428575e-02 0. 0. 0. 0. 0. 0. 2.85714287e-02
      2.85714287e-02 0. 0. 0. 0. 0. 0. 0. 0. 0. 0. 0. 0. 0. 0. 0. 0. 0.
      0. 0. 0. 0. 0. 0. 0. 2.85714287e-02 0. 0. 0. 2.85714287e-02 0. 0.
      0. 0. 0. 0. 0. 2.85714287e-02 0. 0. 0. 0. 0. 0. 0. 0. 0.
      2.85714287e-02 0. 0. 0. 0. 0. 0. 0. 0. 2.85714287e-02 0. 0. 0. 0.
      0. 0. 0. 0. 2.85714287e-02 0. 0. 2.85714287e-02 0. 0. 0.
      2.85714287e-02 0. 0. 5.71428575e-02 0. 0. 0. 0. 0. 0. 0. 0. 0. 0.
      0. 0. 0. 0. 0. 0. 0. 0. 0. 0. 0. 0. 5.71428575e-02 0. 0. 0. 0. 0.
      0. 1.14285715e-01 0. 0. 8.57142881e-02 0. 0. 0. 0. 0. 0. 0. 0. 0.
      0. 0. 0. 0. 0. 0. 0. 0. 0. 0. 2.85714287e-02 2.85714287e-02 0. 0.
      0. 0. 0. 2.85714287e-02 0. 0. 0. 0. 0. 0. 2.85714287e-02 0. 0. 0.
      0. 0. 0. 2.85714287e-02 2.85714287e-02 0. 0. 0. 0. 0. 0. 0. 0. 0.
      0. 0. 0. 2.85714287e-02 0. 0. 0. 0. 0. 0. 0. 0. 0. 0. 0. 0. 0. 0.
      2.85714287e-02 0. 0. 0. 0. 0. 2.85714287e-02 5.71428575e-02 0. 0.
      2.85714287e-02</_>
    <_>
      0. 1.36986300e-02 0. 0. 0. 0. 0. 0. 0. 1.36986300e-02 0. 0. 0. 0.
      0. 1.36986300e-02 0. 0. 0. 0. 0. 1.36986300e-02 0. 1.36986300e-02
      0. 0. 0. 2.73972601e-02 1.36986300e-02 0. 1.36986300e-02 0. 0. 0.
      1.36986300e-02 1.36986300e-02 0. 1.36986300e-02 0. 0.
      1.36986300e-02 0. 0. 0. 0. 0. 0. 0. 0. 0. 1.36986300e-02 0. 0. 0.
      0. 0. 0. 0. 2.73972601e-02 1.36986300e-02 0. 1.36986300e-02
      1.36986300e-02 0. 0. 0. 0. 0. 0. 5.47945201e-02 2.73972601e-02 0.
      0. 0. 0. 1.36986300e-02 0. 0. 0. 1.36986300e-02 0. 0. 0.
      1.36986300e-02 1.36986300e-02 0. 0. 1.36986300e-02 0. 0.
      1.36986300e-02 0. 2.73972601e-02 0. 0. 0. 0. 0. 0. 0.
      1.36986300e-02 0. 0. 1.36986300e-02 0. 0. 0. 0. 0. 0. 0. 0. 0.
      1.36986300e-02 1.36986300e-02 0. 0. 1.36986300e-02 0.
      1.36986300e-02 0. 0. 1.36986300e-02 1.36986300e-02 0.
      4.10958901e-02 0. 1.36986300e-02 0. 1.36986300e-02 0. 0. 0. 0.
      1.36986300e-02 0. 0. 0. 0. 0. 0. 0. 1.36986300e-02 0. 0.
      1.36986300e-02 0. 0. 1.36986300e-02 0. 2.73972601e-02 0.
      4.10958901e-02 0. 0. 0. 2.73972601e-02 0. 0. 1.36986300e-02 0.
      1.36986300e-02 1.36986300e-02 0. 1.36986300e-02 0. 0.
      1.36986300e-02 0. 0. 0. 0. 4.10958901e-02 0. 0. 4.10958901e-02 0.
      1.36986300e-02 0. 0. 0. 0. 0. 1.36986300e-02 0. 0. 0. 0. 0. 0. 0.
      0. 0. 1.36986300e-02 0. 1.36986300e-02 0. 0. 1.36986300e-02 0.</_>
    <_>
      0. 0. 0. 0. 0. 0. 2.43902430e-02 0. 0. 0. 0. 0. 2.43902430e-02 0.
      0. 0. 0. 0. 0. 0. 0. 0. 0. 0. 0. 0. 0. 2.43902430e-02 0. 0. 0. 0.
      0. 0. 0. 0. 0. 0. 0. 2.43902430e-02 0. 0. 0. 0. 0. 0. 0. 0.
      2.43902430e-02 0. 0. 0. 2.43902430e-02 0. 0. 0. 2.43902430e-02 0.
      2.43902430e-02 0. 0. 0. 0. 0. 0. 0. 0. 0. 0. 0. 2.43902430e-02 0.
      0. 0. 0. 0. 0. 0. 0. 0. 0. 0. 0. 0. 0. 0. 0. 2.43902430e-02 0. 0.
      0. 0. 0. 0. 0. 0. 0. 2.43902430e-02 0. 0. 0. 0. 0. 0.
      2.43902430e-02 4.87804860e-02 0. 2.43902430e-02 0. 0. 0. 0. 0. 0.
      0. 0. 0. 0. 0. 0. 0. 4.87804860e-02 0. 2.43902430e-02 0.
      2.43902430e-02 2.43902430e-02 0. 0. 0. 0. 0. 0. 0. 0. 0. 0. 0. 0.
      2.43902430e-02 4.87804860e-02 0. 0. 2.43902430e-02 0. 0. 0. 0. 0.
      0. 2.43902430e-02 0. 2.43902430e-02 0. 0. 2.43902430e-02 0. 0.
      2.43902430e-02 0. 2.43902430e-02 4.87804860e-02 0. 0. 0.
      2.43902430e-02 0. 0. 0. 2.43902430e-02 2.43902430e-02 0. 0. 0. 0.
      2.43902430e-02 2.43902430e-02 0. 0. 2.43902430e-02 0. 0. 0. 0. 0.
      0. 0. 0. 0. 2.43902430e-02 2.43902430e-02 2.43902430e-02 0. 0. 0.
      0. 0. 0. 0. 2.43902430e-02</_>
    <_>
      0. 0. 0. 1.53846154e-02 0. 0. 0. 0. 1.53846154e-02 0.
      1.53846154e-02 1.53846154e-02 0. 0. 1.53846154e-02 0.
      4.61538471e-02 0. 1.53846154e-02 1.53846154e-02 0. 0.
      1.53846154e-02 1.53846154e-02 0. 0. 1.53846154e-02 0. 0.
      1.53846154e-02 0. 0. 1.53846154e-02 3.07692308e-02 0.
      1.53846154e-02 0. 0. 0. 0. 0. 0. 0. 3.07692308e-02 0. 0.
      3.07692308e-02 0. 1.53846154e-02 0. 0. 0. 1.53846154e-02 0. 0.
      1.53846154e-02 0. 0. 1.53846154e-02 0. 1.53846154e-02 0.
      1.53846154e-02 0. 0. 0. 0. 0. 0. 0. 0. 0. 0. 0. 0. 0. 0. 0. 0. 0.
      1.53846154e-02 0. 0. 0. 1.53846154e-02 0. 0. 0. 0. 0. 0.
      1.53846154e-02 0. 0. 0. 0. 0. 1.53846154e-02 0. 0. 1.53846154e-02
      0. 0. 1.53846154e-02 3.07692308e-02 0. 1.53846154e-02 0. 0. 0. 0.
      0. 0. 1.53846154e-02 0. 0. 0. 0. 0. 0. 3.07692308e-02 0. 0. 0. 0.
      0. 0. 0. 0. 0. 0. 1.53846154e-02 0. 0. 0. 0. 0. 0. 0.
      1.53846154e-02 0. 3.07692308e-02 0. 0. 0. 1.53846154e-02
      1.53846154e-02 0. 0. 0. 0. 1.53846154e-02 0. 0. 0. 0. 0. 0.
      1.53846154e-02 1.53846154e-02 0. 0. 1.53846154e-02 0.
      3.07692308e-02 0. 0. 0. 1.53846154e-02 3.07692308e-02 0.
      1.53846154e-02 1.53846154e-02 4.61538471e-02 0. 0. 0. 0.
      1.53846154e-02 0. 0. 0. 0. 1.53846154e-02 0. 1.53846154e-02 0. 0.
      0. 0. 0. 0. 1.53846154e-02 0. 1.53846154e-02 0. 0. 0. 0. 0.</_>
    <_>
      0. 0. 0. 0. 0. 0. 0. 0. 0. 0. 0. 0. 3.57142873e-02 0.
      3.57142873e-02 0. 0. 0. 0. 3.57142873e-02 0. 0. 0. 0. 0. 0. 0. 0.
      0. 0. 0. 0. 0. 0. 0. 0. 0. 3.57142873e-02 0. 0. 0. 0. 0. 0. 0. 0.
      0. 0. 0. 0. 0. 0. 0. 0. 0. 0. 0. 3.57142873e-02 0. 0. 0. 0. 0. 0.
      0. 3.57142873e-02 0. 0. 0. 0. 0. 0. 0. 0. 0. 0. 0. 0. 0. 0. 0. 0.
      0. 0. 0. 0. 0. 3.57142873e-02 0. 0. 0. 0. 0. 3.57142873e-02 0. 0.
      0. 3.57142873e-02 0. 0. 0. 3.57142873e-02 3.57142873e-02 0. 0. 0.
      0. 0. 0. 0. 0. 0. 0. 0. 0. 3.57142873e-02 3.57142873e-02 0. 0.
      3.57142873e-02 3.57142873e-02 0. 3.57142873e-02 0. 0. 0. 0. 0. 0.
      3.57142873e-02 0. 0. 0. 0. 0. 0. 0. 0. 0. 0. 0. 0. 0. 0. 0. 0. 0.
      3.57142873e-02 0. 7.14285746e-02 0. 0. 0. 0. 0. 3.57142873e-02 0.
      0. 3.57142873e-02 0. 0. 0. 0. 0. 0. 0. 0. 0. 0. 0. 0. 0. 0. 0.
      3.57142873e-02 3.57142873e-02 3.57142873e-02 0. 0. 0. 0.
      7.14285746e-02 0. 0. 0. 0. 0. 0. 0. 0. 0. 0. 0. 0. 3.57142873e-02
      0. 0. 0. 0. 0.</_>
    <_>
      0. 0. 0. 1.88679248e-02 1.88679248e-02 0. 0. 0. 0. 0. 0. 0. 0. 0.
      0. 0. 0. 0. 1.88679248e-02 1.88679248e-02 0. 0. 1.88679248e-02 0.
      0. 0. 0. 0. 0. 0. 0. 0. 0. 1.88679248e-02 0. 3.77358496e-02 0.
      1.88679248e-02 0. 0. 1.88679248e-02 0. 1.88679248e-02 0. 0. 0.
      1.88679248e-02 0. 0. 1.88679248e-02 0. 0. 0. 0. 0. 1.88679248e-02
      0. 0. 0. 0. 1.88679248e-02 1.88679248e-02 0. 0. 0. 1.88679248e-02
      0. 0. 0. 0. 0. 0. 0. 3.77358496e-02 1.88679248e-02 0. 0. 0. 0. 0.
      0. 1.88679248e-02 0. 0. 1.88679248e-02 0. 0. 0. 0. 0. 0. 0.
      3.77358496e-02 1.88679248e-02 0. 3.77358496e-02 0. 0. 0. 0. 0. 0.
      1.88679248e-02 0. 0. 1.88679248e-02 0. 1.88679248e-02
      1.88679248e-02 3.77358496e-02 0. 0. 1.88679248e-02 1.88679248e-02
      1.88679248e-02 0. 0. 0. 0. 0. 0. 1.88679248e-02 1.88679248e-02 0.
      0. 0. 0. 0. 0. 0. 0. 0. 0. 0. 3.77358496e-02 1.88679248e-02 0. 0.
      0. 0. 0. 0. 0. 0. 1.88679248e-02 1.88679248e-02 0. 1.88679248e-02
      0. 1.88679248e-02 0. 0. 0. 1.88679248e-02 0. 0. 0. 0. 0. 0. 0. 0.
      0. 1.88679248e-02 0. 0. 0. 0. 0. 0. 0. 0. 1.88679248e-02 0. 0. 0.
      0. 1.88679248e-02 0. 1.88679248e-02 1.88679248e-02 1.88679248e-02
      0. 0. 0. 0. 0. 0. 0. 0. 0. 0. 0. 0. 0. 0. 1.88679248e-02 0. 0. 0.</_>
    <_>
      0. 0. 0. 3.50877196e-02 1.75438598e-02 0. 0. 0. 0. 3.50877196e-02
      5.26315793e-02 0. 0. 0. 0. 1.75438598e-02 3.50877196e-02
      1.75438598e-02 1.75438598e-02 0. 0. 0. 0. 0. 0. 0. 1.75438598e-02
      0. 0. 0. 0. 0. 0. 0. 1.75438598e-02 0. 0. 0. 1.75438598e-02 0. 0.
      0. 0. 1.75438598e-02 1.75438598e-02 0. 0. 0. 1.75438598e-02 0. 0.
      0. 0. 1.75438598e-02 0. 0. 0. 0. 1.75438598e-02 0. 0. 0. 0. 0. 0.
      0. 0. 0. 0. 0. 0. 0. 0. 0. 0. 1.75438598e-02 1.75438598e-02 0. 0.
      0. 0. 0. 0. 0. 0. 0. 0. 5.26315793e-02 0. 0. 0. 0. 0.
      1.75438598e-02 0. 0. 0. 0. 1.75438598e-02 0. 0. 5.26315793e-02
      1.75438598e-02 0. 0. 0. 0. 0. 0. 0. 5.26315793e-02 0. 0. 0.
      1.75438598e-02 0. 0. 1.75438598e-02 0. 0. 1.75438598e-02
      1.75438598e-02 0. 0. 1.75438598e-02 0. 0. 0. 0. 0. 1.75438598e-02
      8.77192989e-02 0. 0. 0. 0. 0. 1.75438598e-02 0. 0. 0. 0. 0.
      1.75438598e-02 1.75438598e-02 0. 0. 0. 1.75438598e-02 0. 0.
      1.75438598e-02 0. 0. 0. 1.75438598e-02 1.75438598e-02 0.
      1.75438598e-02 0. 0. 0. 0. 0. 0. 0. 0. 0. 0. 0. 0. 0. 0. 0. 0. 0.
      0. 0. 0. 0. 0. 0. 0. 0. 0. 1.75438598e-02 0. 0. 0. 0. 0.
      1.75438598e-02 0. 1.75438598e-02 0. 0. 0. 0. 0. 0.</_>
    <_>
      0. 1.96078438e-02 0. 1.96078438e-02 0. 0. 0. 0. 0. 0. 0. 0.
      1.96078438e-02 1.96078438e-02 0. 0. 0. 0. 0. 0. 0. 0. 0.
      1.96078438e-02 0. 0. 0. 0. 0. 0. 3.92156877e-02 0. 0. 0. 0.
      1.96078438e-02 0. 0. 0. 0. 0. 0. 0. 0. 1.96078438e-02 0. 0. 0. 0.
      1.96078438e-02 0. 0. 0. 0. 0. 1.96078438e-02 0. 0. 0. 0. 0.
      1.96078438e-02 1.96078438e-02 1.96078438e-02 1.96078438e-02 0.
      3.92156877e-02 0. 0. 0. 0. 0. 3.92156877e-02 0. 0. 0. 0. 0. 0. 0.
      0. 0. 0. 1.96078438e-02 0. 0. 0. 0. 0. 1.96078438e-02 0. 0. 0. 0.
      0. 0. 0. 0. 0. 0. 0. 0. 3.92156877e-02 0. 0. 0. 0. 0. 0. 0.
      1.96078438e-02 1.96078438e-02 0. 0. 0. 0. 0. 3.92156877e-02
      1.96078438e-02 1.96078438e-02 0. 0. 1.96078438e-02 0. 0. 0. 0. 0.
      0. 0. 1.96078438e-02 0. 0. 0. 0. 0. 0. 0. 1.96078438e-02
      1.96078438e-02 0. 0. 0. 0. 0. 0. 0. 1.96078438e-02 0. 0.
      1.96078438e-02 0. 1.96078438e-02 0. 0. 0. 0. 1.96078438e-02
      1.96078438e-02 0. 0. 0. 1.96078438e-02 0. 3.92156877e-02 0.
      3.92156877e-02 0. 0. 1.96078438e-02 0. 0. 0. 0. 0. 0. 0. 0. 0. 0.
      0. 0. 0. 1.96078438e-02 0. 0. 0. 0. 0. 0. 0. 1.96078438e-02 0.
      1.96078438e-02 1.96078438e-02 3.92156877e-02 0. 1.96078438e-02 0.
      0.</_>
    <_>
      0. 0. 0. 0. 1.16279069e-02 0. 0. 0. 0. 0. 0. 1.16279069e-02 0.
      1.16279069e-02 0. 0. 1.16279069e-02 2.32558139e-02 1.16279069e-02
      0. 0. 0. 0. 0. 0. 0. 0. 0. 1.16279069e-02 1.16279069e-02
      2.32558139e-02 0. 0. 0. 1.16279069e-02 0. 0. 0. 0. 1.16279069e-02
      0. 0. 0. 1.16279069e-02 0. 0. 0. 1.16279069e-02 0. 1.16279069e-02
      3.48837227e-02 0. 0. 0. 0. 2.32558139e-02 0. 0. 0. 0. 0. 0.
      2.32558139e-02 0. 0. 1.16279069e-02 0. 0. 0. 1.16279069e-02
      1.16279069e-02 0. 0. 0. 0. 1.16279069e-02 0. 1.16279069e-02 0.
      1.16279069e-02 1.16279069e-02 1.16279069e-02 2.32558139e-02 0.
      1.16279069e-02 0. 0. 2.32558139e-02 0. 2.32558139e-02
      1.16279069e-02 1.16279069e-02 0. 0. 1.16279069e-02 1.16279069e-02
      0. 2.32558139e-02 0. 0. 0. 1.16279069e-02 0. 0. 0. 1.16279069e-02
      0. 2.32558139e-02 1.16279069e-02 0. 0. 0. 0. 3.48837227e-02 0.
      2.32558139e-02 0. 0. 0. 0. 1.16279069e-02 0. 0. 1.16279069e-02 0.
      0. 1.16279069e-02 0. 0. 0. 0. 0. 0. 0. 2.32558139e-02
      1.16279069e-02 1.16279069e-02 2.32558139e-02 0. 1.16279069e-02 0.
      2.32558139e-02 0. 0. 1.16279069e-02 1.16279069e-02 0. 0.
      1.16279069e-02 0. 0. 0. 0. 0. 0. 0. 1.16279069e-02 0.
      1.16279069e-02 0. 1.16279069e-02 0. 0. 0. 0. 0. 0. 1.16279069e-02
      0. 3.48837227e-02 0. 0. 0. 0. 1.16279069e-02 0. 0. 1.16279069e-02
      0. 1.16279069e-02 0. 0. 0. 0. 0. 0. 0. 1.16279069e-02 0. 0. 0. 0.
      0. 2.32558139e-02 0. 2.32558139e-02 1.16279069e-02 0.
      1.16279069e-02 0.</_>
    <_>
      0. 0. 1.75438598e-02 1.75438598e-02 0. 0. 0. 0. 0. 0. 0. 0. 0. 0.
      3.50877196e-02 1.75438598e-02 0. 0. 0. 0. 0. 0. 0. 3.50877196e-02
      0. 1.75438598e-02 0. 0. 0. 0. 0. 0. 0. 0. 0. 0. 1.75438598e-02
      1.75438598e-02 0. 1.75438598e-02 0. 0. 0. 1.75438598e-02 0. 0. 0.
      0. 0. 0. 0. 1.75438598e-02 1.75438598e-02 0. 0. 1.75438598e-02
      1.75438598e-02 0. 1.75438598e-02 0. 0. 0. 1.75438598e-02 0. 0. 0.
      0. 3.50877196e-02 0. 0. 1.75438598e-02 0. 1.75438598e-02 0. 0.
      1.75438598e-02 0. 0. 1.75438598e-02 1.75438598e-02 0. 0. 0. 0. 0.
      0. 0. 0. 0. 0. 1.75438598e-02 0. 0. 0. 1.75438598e-02 0. 0.
      1.75438598e-02 0. 0. 1.75438598e-02 0. 1.75438598e-02 0. 0. 0. 0.
      0. 0. 0. 0. 0. 0. 0. 0. 0. 0. 0. 0. 0. 0. 0. 0. 0. 0. 0. 0. 0.
      1.75438598e-02 0. 0. 0. 0. 1.75438598e-02 0. 0. 0. 0. 0. 0.
      1.75438598e-02 1.75438598e-02 0. 0. 1.75438598e-02 0.
      1.75438598e-02 1.75438598e-02 0. 1.75438598e-02 0. 0.
      1.75438598e-02 0. 0. 0. 0. 0. 0. 0. 0. 0. 0. 0. 0. 1.75438598e-02
      0. 0. 3.50877196e-02 0. 0. 0. 0. 0. 1.75438598e-02 0.
      1.75438598e-02 1.75438598e-02 1.75438598e-02 1.75438598e-02 0.
      3.50877196e-02 0. 0. 0. 0. 0. 1.75438598e-02 1.75438598e-02 0.
      1.75438598e-02 0. 0. 0. 0. 1.75438598e-02 5.26315793e-02
      1.75438598e-02 0. 0.</_>
    <_>
      0. 0. 1.26582282e-02 1.26582282e-02 0. 1.26582282e-02 0. 0. 0.
      1.26582282e-02 2.53164563e-02 1.26582282e-02 1.26582282e-02
      2.53164563e-02 0. 1.26582282e-02 0. 0. 0. 0. 0. 0. 0. 0.
      2.53164563e-02 0. 0. 0. 1.26582282e-02 0. 1.26582282e-02 0. 0. 0.
      0. 2.53164563e-02 1.26582282e-02 0. 0. 0. 1.26582282e-02 0. 0. 0.
      1.26582282e-02 1.26582282e-02 1.26582282e-02 0. 0. 0.
      1.26582282e-02 0. 1.26582282e-02 1.26582282e-02 0. 1.26582282e-02
      1.26582282e-02 0. 0. 0. 2.53164563e-02 0. 3.79746854e-02
      1.26582282e-02 0. 1.26582282e-02 0. 0. 0. 0. 0. 0. 1.26582282e-02
      0. 1.26582282e-02 0. 0. 0. 0. 2.53164563e-02 1.26582282e-02 0. 0.
      0. 0. 0. 0. 1.26582282e-02 0. 0. 0. 2.53164563e-02 0.
      1.26582282e-02 0. 0. 0. 0. 0. 0. 0. 2.53164563e-02 1.26582282e-02
      0. 1.26582282e-02 0. 2.53164563e-02 0. 0. 0. 0. 0. 0. 0. 0. 0.
      2.53164563e-02 0. 1.26582282e-02 0. 0. 1.26582282e-02
      1.26582282e-02 0. 0. 0. 0. 0. 0. 0. 0. 0. 0. 0. 0. 0.
      1.26582282e-02 0. 0. 0. 0. 0. 1.26582282e-02 2.53164563e-02 0. 0.
      1.26582282e-02 1.26582282e-02 0. 0. 0. 0. 0. 1.26582282e-02
      1.26582282e-02 2.53164563e-02 0. 1.26582282e-02 1.26582282e-02 0.
      0. 0. 0. 1.26582282e-02 0. 0. 0. 1.26582282e-02 0. 0.
      1.26582282e-02 0. 0. 1.26582282e-02 1.26582282e-02 1.26582282e-02
      0. 0. 0. 0. 0. 0. 1.26582282e-02 0. 2.53164563e-02 0. 0. 0. 0. 0.
      0. 0. 0. 0. 0. 3.79746854e-02 1.26582282e-02 0. 0. 0.</_>
    <_>
      0. 0. 0. 5.17241359e-02 1.72413792e-02 0. 1.72413792e-02
      1.72413792e-02 0. 1.72413792e-02 0. 0. 0. 0. 0. 0. 0. 0. 0. 0. 0.
      0. 0. 0. 1.72413792e-02 0. 0. 0. 0. 0. 1.72413792e-02 0.
      6.89655170e-02 1.72413792e-02 0. 0. 0. 0. 0. 1.72413792e-02
      1.72413792e-02 0. 0. 0. 0. 0. 0. 1.72413792e-02 1.72413792e-02 0.
      1.72413792e-02 0. 0. 0. 0. 0. 0. 0. 0. 0. 0. 0. 0. 0.
      1.72413792e-02 0. 0. 0. 0. 0. 0. 0. 0. 1.72413792e-02 0. 0.
      3.44827585e-02 0. 0. 0. 0. 0. 0. 0. 0. 0. 0. 1.72413792e-02 0. 0.
      0. 0. 0. 0. 0. 0. 0. 1.72413792e-02 3.44827585e-02 0.
      1.72413792e-02 0. 0. 1.72413792e-02 1.72413792e-02 1.72413792e-02
      0. 0. 1.72413792e-02 0. 1.72413792e-02 0. 0. 0. 0. 0.
      1.72413792e-02 0. 1.72413792e-02 0. 0. 0. 0. 1.72413792e-02 0.
      1.72413792e-02 0. 0. 1.72413792e-02 0. 0. 3.44827585e-02 0. 0.
      1.72413792e-02 0. 3.44827585e-02 0. 1.72413792e-02 0. 0. 0. 0. 0.
      0. 0. 0. 0. 0. 0. 0. 0. 0. 1.72413792e-02 1.72413792e-02 0.
      1.72413792e-02 0. 1.72413792e-02 0. 0. 0. 0. 0. 0. 0. 0. 0. 0. 0.
      3.44827585e-02 0. 0. 1.72413792e-02 0. 0. 1.72413792e-02 0.
      1.72413792e-02 0. 0. 1.72413792e-02 0. 0. 0. 0. 0. 0. 0. 0.
      3.44827585e-02 0. 0. 0. 0. 0. 3.44827585e-02 0. 0. 0.</_>
    <_>
      0. 0. 0. 0. 0. 2.12765951e-02 0. 0. 2.12765951e-02 0. 0. 0.
      4.25531901e-02 0. 0. 0. 0. 0. 0. 0. 0. 2.12765951e-02 0.
      4.25531901e-02 0. 0. 0. 2.12765951e-02 2.12765951e-02
      2.12765951e-02 0. 0. 0. 0. 0. 0. 0. 0. 0. 0. 0. 0. 0.
      2.12765951e-02 0. 0. 0. 0. 0. 0. 0. 0. 0. 0. 0. 0. 0. 0.
      6.38297871e-02 0. 0. 0. 2.12765951e-02 0. 0. 0. 0. 0. 0.
      2.12765951e-02 4.25531901e-02 0. 0. 0. 0. 0. 0. 0. 0. 0. 0.
      4.25531901e-02 2.12765951e-02 0. 0. 0. 0. 4.25531901e-02 0.
      4.25531901e-02 0. 2.12765951e-02 0. 0. 0. 2.12765951e-02 0.
      2.12765951e-02 0. 2.12765951e-02 0. 0. 0. 0. 0. 0. 0. 0. 0. 0. 0.
      2.12765951e-02 0. 2.12765951e-02 0. 0. 2.12765951e-02 0. 0. 0. 0.
      0. 0. 2.12765951e-02 0. 0. 0. 0. 0. 0. 0. 0. 0. 0. 0. 0. 0.
      2.12765951e-02 2.12765951e-02 2.12765951e-02 0. 0. 0. 0.
      2.12765951e-02 2.12765951e-02 0. 0. 4.25531901e-02 0. 0. 0. 0. 0.
      2.12765951e-02 0. 0. 0. 2.12765951e-02 0. 0. 0. 0. 0. 0.
      2.12765951e-02 0. 0. 0. 0. 0. 0. 0. 0. 0. 2.12765951e-02 0. 0. 0.
      0. 0. 0. 0. 2.12765951e-02 0. 0. 0. 0. 0. 0. 0. 0. 0. 0.
      2.12765951e-02 0. 2.12765951e-02 0. 0. 0.</_>
    <_>
      0. 0. 0. 0. 0. 1.69491526e-02 0. 0. 0. 1.69491526e-02 0. 0. 0.
      1.69491526e-02 0. 0. 1.69491526e-02 0. 0. 0. 0. 1.69491526e-02 0.
      0. 0. 0. 0. 1.69491526e-02 1.69491526e-02 0. 0. 0. 0. 0. 0.
      1.69491526e-02 0. 0. 0. 1.69491526e-02 0. 0. 3.38983051e-02
      1.69491526e-02 1.69491526e-02 0. 1.69491526e-02 1.69491526e-02
      1.69491526e-02 0. 0. 0. 0. 1.69491526e-02 0. 0. 0. 0. 0. 0. 0. 0.
      0. 1.69491526e-02 0. 1.69491526e-02 0. 0. 0. 0. 0. 0. 0. 0. 0. 0.
      1.69491526e-02 0. 0. 1.69491526e-02 0. 1.69491526e-02 0. 0. 0. 0.
      0. 0. 0. 1.69491526e-02 0. 0. 0. 5.08474559e-02 0. 0.
      3.38983051e-02 0. 1.69491526e-02 0. 1.69491526e-02 3.38983051e-02
      3.38983051e-02 0. 1.69491526e-02 1.69491526e-02 0. 0. 0. 0. 0. 0.
      0. 0. 1.69491526e-02 0. 0. 0. 0. 0. 3.38983051e-02 0. 0.
      1.69491526e-02 0. 0. 0. 0. 0. 1.69491526e-02 0. 0. 0. 0. 0. 0. 0.
      1.69491526e-02 0. 0. 0. 0. 0. 3.38983051e-02 0. 0. 0.
      3.38983051e-02 0. 0. 0. 0. 0. 3.38983051e-02 0. 3.38983051e-02 0.
      0. 1.69491526e-02 1.69491526e-02 1.69491526e-02 0. 0. 0. 0. 0. 0.
      0. 0. 1.69491526e-02 0. 0. 0. 0. 0. 0. 0. 0. 0. 0. 0. 0.
      1.69491526e-02 0. 0. 0. 0. 0. 0. 0. 0. 0. 0. 1.69491526e-02 0.
      1.69491526e-02 1.69491526e-02 1.69491526e-02 0. 0.</_>
    <_>
      0. 0. 0. 0. 1.96078438e-02 0. 1.96078438e-02 0. 1.96078438e-02 0.
      0. 0. 3.92156877e-02 0. 0. 0. 0. 0. 0. 0. 0. 0. 0. 0. 0. 0.
      1.96078438e-02 0. 0. 0. 0. 0. 0. 0. 1.96078438e-02 0. 0.
      1.96078438e-02 0. 0. 0. 0. 0. 0. 0. 0. 1.96078438e-02 0. 0. 0. 0.
      1.96078438e-02 0. 0. 1.96078438e-02 0. 0. 0. 0. 0. 0. 0. 0. 0.
      1.96078438e-02 0. 0. 0. 0. 0. 0. 0. 0. 0. 0. 0. 0. 0.
      3.92156877e-02 1.96078438e-02 3.92156877e-02 3.92156877e-02 0. 0.
      0. 0. 0. 1.96078438e-02 0. 0. 0. 0. 1.96078438e-02 0.
      3.92156877e-02 0. 1.96078438e-02 1.96078438e-02 1.96078438e-02 0.
      0. 3.92156877e-02 1.96078438e-02 0. 0. 0. 0. 0. 0. 0. 0. 0. 0.
      1.96078438e-02 0. 0. 0. 0. 0. 0. 0. 1.96078438e-02 0.
      1.96078438e-02 0. 1.96078438e-02 0. 0. 0. 0. 1.96078438e-02 0. 0.
      1.96078438e-02 0. 0. 0. 0. 0. 1.96078438e-02 0. 0. 0. 0. 0. 0. 0.
      0. 0. 1.96078438e-02 0. 0. 0. 0. 0. 7.84313753e-02 1.96078438e-02
      3.92156877e-02 0. 1.96078438e-02 0. 0. 0. 0. 0. 0. 0. 0. 0. 0. 0.
      0. 0. 0. 0. 0. 0. 0. 0. 1.96078438e-02 1.96078438e-02
      1.96078438e-02 0. 0. 0. 0. 1.96078438e-02 0. 0. 0. 3.92156877e-02
      0. 0. 0. 0. 0. 0. 0. 0. 0.</_>
    <_>
      1.35135138e-02 0. 1.35135138e-02 1.35135138e-02 0. 1.35135138e-02
      0. 0. 0. 0. 0. 0. 0. 1.35135138e-02 0. 1.35135138e-02 0. 0. 0.
      1.35135138e-02 1.35135138e-02 0. 1.35135138e-02 1.35135138e-02 0.
      0. 1.35135138e-02 1.35135138e-02 0. 1.35135138e-02 0. 0.
      2.70270277e-02 0. 0. 0. 0. 0. 0. 1.35135138e-02 0. 0. 0.
      1.35135138e-02 0. 0. 0. 0. 0. 0. 0. 0. 0. 1.35135138e-02 0.
      1.35135138e-02 0. 0. 0. 0. 0. 0. 1.35135138e-02 2.70270277e-02 0.
      0. 0. 5.40540554e-02 0. 0. 0. 0. 0. 0. 0. 1.35135138e-02 0. 0.
      1.35135138e-02 0. 0. 1.35135138e-02 0. 0. 0. 1.35135138e-02
      1.35135138e-02 0. 1.35135138e-02 0. 2.70270277e-02 1.35135138e-02
      0. 0. 0. 0. 0. 2.70270277e-02 0. 0. 0. 1.35135138e-02 0. 0. 0. 0.
      2.70270277e-02 0. 0. 1.35135138e-02 1.35135138e-02 0. 0. 0. 0.
      1.35135138e-02 1.35135138e-02 1.35135138e-02 0. 0. 1.35135138e-02
      0. 0. 0. 0. 0. 0. 0. 0. 0. 1.35135138e-02 0. 1.35135138e-02 0. 0.
      0. 0. 2.70270277e-02 0. 0. 0. 0. 1.35135138e-02 1.35135138e-02 0.
      1.35135138e-02 0. 2.70270277e-02 0. 0. 1.35135138e-02 0. 0. 0.
      1.35135138e-02 0. 0. 0. 0. 0. 0. 0. 0. 0. 0. 1.35135138e-02 0. 0.
      0. 0. 1.35135138e-02 0. 2.70270277e-02 0. 0. 0. 2.70270277e-02 0.
      0. 1.35135138e-02 0. 0. 0. 0. 0. 2.70270277e-02 0. 1.35135138e-02
      0. 0. 4.05405425e-02 1.35135138e-02 0. 0. 0. 0. 2.70270277e-02 0.
      1.35135138e-02 0.</_>
    <_>
      0. 1.61290318e-02 0. 0. 1.61290318e-02 0. 0. 0. 0. 0. 0. 0. 0. 0.
      3.22580636e-02 1.61290318e-02 0. 1.61290318e-02 0. 0. 0.
      1.61290318e-02 1.61290318e-02 0. 0. 0. 0. 0. 0. 0. 0. 0.
      1.61290318e-02 0. 3.22580636e-02 0. 0. 0. 0. 0. 1.61290318e-02 0.
      0. 0. 0. 0. 1.61290318e-02 0. 0. 0. 0. 0. 0. 0. 0. 4.83870953e-02
      0. 0. 0. 1.61290318e-02 1.61290318e-02 0. 0. 1.61290318e-02
      1.61290318e-02 6.45161271e-02 0. 0. 0. 0. 0. 0. 0. 0. 0.
      1.61290318e-02 0. 1.61290318e-02 1.61290318e-02 0. 0. 0.
      1.61290318e-02 0. 0. 0. 0. 1.61290318e-02 0. 1.61290318e-02 0. 0.
      1.61290318e-02 0. 0. 1.61290318e-02 0. 0. 0. 0. 0. 0. 0. 0.
      3.22580636e-02 1.61290318e-02 0. 0. 1.61290318e-02 0. 0. 0. 0. 0.
      0. 0. 0. 1.61290318e-02 0. 0. 0. 0. 0. 0. 1.61290318e-02
      1.61290318e-02 0. 0. 0. 0. 1.61290318e-02 0. 0. 0. 0.
      1.61290318e-02 1.61290318e-02 0. 3.22580636e-02 1.61290318e-02 0.
      3.22580636e-02 0. 1.61290318e-02 1.61290318e-02 0. 1.61290318e-02
      0. 0. 0. 0. 0. 1.61290318e-02 0. 0. 0. 0. 0. 0. 1.61290318e-02 0.
      0. 1.61290318e-02 0. 0. 0. 0. 1.61290318e-02 0. 0. 0. 0. 0. 0. 0.
      0. 0. 3.22580636e-02 0. 1.61290318e-02 0. 0. 0. 0. 0. 0.
      3.22580636e-02 1.61290318e-02 0. 0. 0. 0. 0. 0. 0. 0. 0.
      1.61290318e-02 1.61290318e-02 0.</_>
    <_>
      0. 0. 0. 0. 0. 2.63157897e-02 0. 0. 0. 0. 0. 2.63157897e-02
      2.63157897e-02 0. 0. 0. 0. 2.63157897e-02 0. 5.26315793e-02 0. 0.
      0. 0. 2.63157897e-02 0. 0. 0. 0. 0. 0. 0. 0. 0. 0. 0. 0. 0. 0. 0.
      0. 0. 0. 0. 0. 0. 0. 2.63157897e-02 0. 0. 0. 0. 0. 2.63157897e-02
      0. 0. 2.63157897e-02 0. 0. 0. 0. 0. 2.63157897e-02 0. 0.
      2.63157897e-02 0. 0. 2.63157897e-02 0. 2.63157897e-02 0. 0. 0.
      2.63157897e-02 0. 0. 0. 0. 0. 0. 0. 0. 0. 0. 0. 0. 0. 0.
      2.63157897e-02 0. 2.63157897e-02 0. 0. 0. 0. 0. 0. 0. 0. 0. 0. 0.
      0. 0. 0. 0. 0. 0. 0. 7.89473653e-02 0. 0. 2.63157897e-02 0.
      2.63157897e-02 2.63157897e-02 0. 0. 0. 0. 0. 0. 0. 0. 0. 0. 0. 0.
      0. 0. 0. 0. 0. 0. 0. 0. 7.89473653e-02 0. 0. 0. 0. 0. 0.
      2.63157897e-02 0. 0. 0. 0. 2.63157897e-02 0. 0. 0. 0. 0.
      2.63157897e-02 0. 0. 2.63157897e-02 0. 2.63157897e-02 0. 0. 0.
      2.63157897e-02 0. 0. 0. 0. 0. 0. 0. 0. 0. 0. 0. 0. 2.63157897e-02
      0. 0. 0. 0. 0. 0. 2.63157897e-02 0. 0. 0. 0. 0. 5.26315793e-02 0.
      0. 0. 0. 2.63157897e-02 2.63157897e-02 0. 0. 0.</_>
    <_>
      0. 0. 0. 0. 0. 0. 2.22222228e-02 0. 0. 0. 6.66666701e-02 0.
      2.22222228e-02 0. 0. 0. 0. 0. 2.22222228e-02 0. 0. 0.
      2.22222228e-02 0. 0. 0. 0. 2.22222228e-02 0. 4.44444455e-02
      2.22222228e-02 0. 0. 2.22222228e-02 0. 0. 2.22222228e-02 0. 0. 0.
      0. 0. 0. 0. 2.22222228e-02 2.22222228e-02 0. 2.22222228e-02 0. 0.
      0. 0. 0. 0. 0. 4.44444455e-02 0. 2.22222228e-02 0. 0. 0. 0. 0. 0.
      0. 0. 0. 0. 0. 0. 0. 0. 0. 0. 0. 2.22222228e-02 0. 0. 0. 0. 0. 0.
      0. 0. 0. 0. 4.44444455e-02 0. 0. 0. 0. 0. 0. 0. 0. 0. 0.
      2.22222228e-02 0. 0. 4.44444455e-02 2.22222228e-02 0. 0. 0. 0. 0.
      0. 0. 0. 2.22222228e-02 0. 0. 0. 0. 2.22222228e-02 2.22222228e-02
      0. 0. 0. 0. 0. 0. 0. 0. 0. 0. 0. 0. 0. 2.22222228e-02 0. 0.
      2.22222228e-02 0. 0. 4.44444455e-02 0. 0. 2.22222228e-02 0. 0. 0.
      0. 0. 0. 0. 0. 0. 0. 0. 0. 0. 0. 2.22222228e-02 0. 0.
      2.22222228e-02 0. 0. 0. 0. 0. 2.22222228e-02 0. 0. 0.
      2.22222228e-02 0. 4.44444455e-02 0. 0. 0. 0. 0. 0. 0. 0. 0. 0. 0.
      0. 0. 2.22222228e-02 2.22222228e-02 2.22222228e-02 0. 0. 0. 0. 0.
      0. 0. 0. 0. 0. 0. 2.22222228e-02 2.22222228e-02 0.</_>
    <_>
      0. 0. 1.78571437e-02 0. 0. 0. 1.78571437e-02 0. 0. 0. 0. 0. 0. 0.
      0. 0. 0. 1.78571437e-02 0. 0. 0. 0. 3.57142873e-02 0. 0.
      3.57142873e-02 1.78571437e-02 0. 1.78571437e-02 0. 0. 0. 0. 0. 0.
      0. 0. 1.78571437e-02 0. 0. 0. 0. 0. 0. 0. 0. 0. 5.35714328e-02 0.
      0. 0. 0. 0. 0. 0. 0. 0. 0. 0. 1.78571437e-02 0. 1.78571437e-02
      1.78571437e-02 0. 0. 0. 0. 0. 0. 1.78571437e-02 0. 0. 0. 0. 0. 0.
      0. 1.78571437e-02 0. 0. 0. 0. 0. 0. 0. 0. 0. 0. 0. 0. 0. 0.
      3.57142873e-02 0. 0. 0. 0. 0. 0. 0. 0. 0. 1.78571437e-02 0. 0. 0.
      1.78571437e-02 0. 1.78571437e-02 0. 0. 0. 0. 0. 1.78571437e-02 0.
      7.14285746e-02 0. 0. 0. 0. 1.78571437e-02 0. 1.78571437e-02 0.
      3.57142873e-02 0. 0. 0. 0. 1.78571437e-02 0. 0. 0. 0. 0. 0. 0. 0.
      0. 0. 0. 0. 0. 0. 0. 1.78571437e-02 1.78571437e-02 0. 0. 0.
      1.78571437e-02 7.14285746e-02 0. 0. 0. 0. 1.78571437e-02
      1.78571437e-02 0. 1.78571437e-02 0. 0. 0. 3.57142873e-02 0.
      1.78571437e-02 0. 0. 0. 0. 0. 1.78571437e-02 0. 0. 0. 0. 0. 0. 0.
      1.78571437e-02 1.78571437e-02 0. 0. 0. 0. 1.78571437e-02 0. 0. 0.
      0. 0. 1.78571437e-02 0. 3.57142873e-02 1.78571437e-02
      1.78571437e-02 0. 1.78571437e-02 0.</_>
    <_>
      0. 0. 0. 0. 1.47058824e-02 2.94117648e-02 0. 0. 0. 1.47058824e-02
      0. 1.47058824e-02 4.41176482e-02 1.47058824e-02 1.47058824e-02 0.
      0. 0. 1.47058824e-02 1.47058824e-02 2.94117648e-02 2.94117648e-02
      0. 0. 0. 0. 1.47058824e-02 1.47058824e-02 0. 0. 0. 0. 0. 0. 0. 0.
      0. 0. 0. 0. 0. 0. 0. 1.47058824e-02 0. 0. 0. 0. 0. 2.94117648e-02
      0. 0. 0. 0. 0. 0. 0. 0. 0. 0. 0. 1.47058824e-02 0. 1.47058824e-02
      0. 0. 0. 2.94117648e-02 0. 2.94117648e-02 0. 0. 0. 0. 0. 0.
      1.47058824e-02 1.47058824e-02 0. 0. 0. 0. 1.47058824e-02 0. 0. 0.
      0. 0. 0. 0. 0. 0. 0. 0. 1.47058824e-02 0. 0. 0. 1.47058824e-02 0.
      0. 0. 0. 1.47058824e-02 1.47058824e-02 0. 0. 0. 0. 0. 0. 0. 0.
      1.47058824e-02 0. 2.94117648e-02 2.94117648e-02 1.47058824e-02 0.
      0. 0. 0. 1.47058824e-02 0. 0. 0. 0. 0. 0. 2.94117648e-02 0. 0. 0.
      1.47058824e-02 0. 0. 0. 0. 0. 4.41176482e-02 0. 0. 0. 0. 0. 0. 0.
      0. 0. 0. 2.94117648e-02 0. 1.47058824e-02 0. 1.47058824e-02 0. 0.
      1.47058824e-02 0. 1.47058824e-02 0. 1.47058824e-02 0. 0. 0. 0. 0.
      4.41176482e-02 0. 1.47058824e-02 0. 0. 1.47058824e-02 0.
      1.47058824e-02 0. 0. 0. 0. 1.47058824e-02 0. 0. 2.94117648e-02
      1.47058824e-02 0. 0. 0. 0. 1.47058824e-02 0. 0. 0. 0. 0. 0. 0. 0.
      4.41176482e-02 0. 0.</_>
    <_>
      0. 0. 0. 0. 0. 0. 0. 0. 0. 0. 0. 3.84615399e-02 3.84615399e-02 0.
      0. 0. 0. 0. 0. 0. 0. 0. 0. 0. 0. 0. 0. 0. 0. 3.84615399e-02 0. 0.
      0. 0. 0. 0. 0. 3.84615399e-02 0. 0. 0. 0. 0. 0. 0. 0.
      3.84615399e-02 0. 0. 0. 0. 0. 0. 0. 0. 0. 0. 0. 0. 0. 0. 0. 0.
      3.84615399e-02 0. 0. 0. 3.84615399e-02 0. 0. 0. 0. 0. 0. 0. 0.
      3.84615399e-02 0. 3.84615399e-02 0. 0. 0. 0. 0. 0. 0. 0. 0. 0. 0.
      0. 0. 0. 0. 0. 0. 0. 3.84615399e-02 0. 0. 0. 0. 0. 0. 0. 0. 0. 0.
      0. 1.15384623e-01 0. 0. 0. 0. 0. 0. 0. 0. 0. 3.84615399e-02 0. 0.
      0. 0. 0. 0. 0. 0. 0. 0. 0. 0. 0. 0. 0. 0. 0. 0. 0. 0. 0. 0. 0. 0.
      0. 0. 0. 0. 0. 0. 0. 0. 3.84615399e-02 7.69230798e-02 0. 0. 0. 0.
      0. 0. 0. 0. 0. 7.69230798e-02 3.84615399e-02 0. 0. 0. 0. 0. 0. 0.
      0. 0. 0. 0. 0. 0. 3.84615399e-02 0. 0. 1.53846160e-01 0. 0. 0. 0.
      0. 0. 0. 0. 0. 0. 0. 0. 0. 0. 3.84615399e-02 0. 0. 0.</_>
    <_>
      0. 0. 0. 1.69491526e-02 0. 0. 0. 1.69491526e-02 1.69491526e-02 0.
      0. 0. 5.08474559e-02 0. 0. 0. 0. 0. 0. 0. 1.69491526e-02
      1.69491526e-02 0. 0. 0. 0. 0. 0. 0. 1.69491526e-02 3.38983051e-02
      0. 0. 0. 0. 0. 0. 0. 1.69491526e-02 0. 1.69491526e-02 0. 0. 0. 0.
      0. 1.69491526e-02 0. 0. 0. 0. 0. 1.69491526e-02 0. 0. 0. 0.
      1.69491526e-02 0. 0. 0. 0. 0. 1.69491526e-02 0. 0. 0. 0. 0. 0. 0.
      0. 0. 0. 0. 0. 0. 0. 0. 1.69491526e-02 0. 0. 0. 0. 0. 0. 0.
      1.69491526e-02 0. 1.69491526e-02 0. 0. 1.69491526e-02
      1.69491526e-02 0. 0. 0. 0. 0. 0. 0. 1.69491526e-02 5.08474559e-02
      0. 1.69491526e-02 0. 3.38983051e-02 0. 0. 1.69491526e-02 0. 0. 0.
      0. 0. 0. 0. 1.69491526e-02 0. 0. 0. 0. 0. 0. 0. 0. 0.
      1.69491526e-02 1.69491526e-02 0. 0. 1.69491526e-02 0.
      1.69491526e-02 0. 1.69491526e-02 0. 0. 0. 0. 0. 0. 1.69491526e-02
      1.69491526e-02 1.69491526e-02 0. 1.69491526e-02 1.69491526e-02 0.
      0. 0. 1.69491526e-02 0. 3.38983051e-02 0. 3.38983051e-02
      1.69491526e-02 0. 0. 0. 0. 0. 1.69491526e-02 0. 0. 0.
      1.69491526e-02 1.69491526e-02 0. 0. 0. 0. 0. 0. 1.69491526e-02 0.
      0. 0. 0. 0. 0. 0. 0. 1.69491526e-02 0. 0. 3.38983051e-02 0. 0. 0.
      0. 0. 0. 0. 0. 1.69491526e-02 3.38983051e-02 3.38983051e-02 0. 0.</_>
    <_>
      0. 0. 0. 1.28205130e-02 0. 1.28205130e-02 0. 1.28205130e-02 0.
      1.28205130e-02 0. 0. 0. 0. 0. 0. 0. 0. 0. 0. 0. 0. 0. 0. 0.
      1.28205130e-02 0. 1.28205130e-02 0. 0. 0. 0. 1.28205130e-02 0. 0.
      5.12820520e-02 0. 0. 1.28205130e-02 0. 0. 0. 0. 2.56410260e-02
      1.28205130e-02 0. 0. 2.56410260e-02 2.56410260e-02 0. 0. 0.
      1.28205130e-02 3.84615399e-02 0. 0. 0. 0. 1.28205130e-02
      1.28205130e-02 0. 1.28205130e-02 1.28205130e-02 1.28205130e-02 0.
      0. 0. 0. 0. 0. 0. 1.28205130e-02 0. 0. 0. 1.28205130e-02 0. 0. 0.
      2.56410260e-02 0. 0. 0. 0. 0. 0. 1.28205130e-02 0. 0. 0.
      2.56410260e-02 0. 3.84615399e-02 5.12820520e-02 2.56410260e-02
      1.28205130e-02 1.28205130e-02 0. 0. 1.28205130e-02 0.
      3.84615399e-02 1.15384616e-01 0. 0. 0. 0. 0. 0. 0. 0. 0. 0. 0. 0.
      0. 0. 0. 0. 0. 0. 0. 1.28205130e-02 0. 1.28205130e-02 0. 0. 0. 0.
      0. 1.28205130e-02 0. 0. 1.28205130e-02 0. 0. 5.12820520e-02 0. 0.
      0. 0. 0. 0. 0. 0. 0. 0. 0. 0. 0. 0. 0. 0. 0. 1.28205130e-02
      1.28205130e-02 0. 1.28205130e-02 0. 0. 0. 0. 0. 0. 2.56410260e-02
      1.28205130e-02 0. 0. 0. 0. 0. 1.28205130e-02 0. 0. 0. 0. 0. 0. 0.
      0. 0. 0. 0. 0. 3.84615399e-02 0. 0. 0. 0. 0. 0. 0. 0. 0. 0. 0. 0.
      0. 0. 1.28205130e-02</_>
    <_>
      0. 0. 1.75438598e-02 0. 0. 0. 0. 0. 0. 1.75438598e-02
      5.26315793e-02 0. 1.75438598e-02 0. 1.75438598e-02 0. 0. 0. 0. 0.
      0. 0. 0. 0. 0. 0. 0. 0. 1.75438598e-02 0. 0. 0. 0. 3.50877196e-02
      0. 1.75438598e-02 0. 1.75438598e-02 5.26315793e-02 1.75438598e-02
      1.75438598e-02 1.75438598e-02 0. 0. 0. 0. 0. 1.75438598e-02 0. 0.
      0. 0. 0. 1.75438598e-02 0. 1.75438598e-02 0. 0. 0. 0. 0. 0.
      1.75438598e-02 0. 0. 0. 0. 0. 0. 0. 0. 0. 0. 0. 0. 0. 0. 0. 0.
      1.75438598e-02 0. 0. 0. 0. 1.75438598e-02 1.75438598e-02 0. 0.
      3.50877196e-02 0. 1.75438598e-02 0. 0. 0. 0. 0. 0. 0. 0.
      1.75438598e-02 1.75438598e-02 0. 1.75438598e-02 0. 0. 0.
      1.75438598e-02 0. 0. 0. 0. 0. 0. 0. 0. 0. 0. 0. 0. 0. 0. 0. 0. 0.
      0. 0. 0. 0. 0. 0. 0. 0. 0. 1.75438598e-02 0. 1.75438598e-02 0. 0.
      1.75438598e-02 0. 0. 0. 0. 3.50877196e-02 0. 0. 0. 0. 0.
      1.75438598e-02 1.75438598e-02 0. 0. 3.50877196e-02 1.75438598e-02
      0. 0. 1.75438598e-02 0. 0. 0. 0. 1.75438598e-02 0. 0. 0. 0. 0. 0.
      0. 1.75438598e-02 0. 0. 0. 1.75438598e-02 1.75438598e-02 0.
      1.75438598e-02 3.50877196e-02 0. 0. 0. 0. 0. 1.75438598e-02 0.
      1.75438598e-02 1.75438598e-02 0. 0. 0. 0. 0. 5.26315793e-02 0.
      1.75438598e-02 0. 0. 0. 0.</_>
    <_>
      0. 1.96078438e-02 0. 0. 0. 0. 1.96078438e-02 0. 0. 0. 0. 0. 0. 0.
      0. 0. 0. 0. 0. 0. 0. 0. 0. 0. 3.92156877e-02 0. 0. 1.96078438e-02
      1.96078438e-02 0. 0. 0. 0. 1.96078438e-02 0. 0. 0. 0.
      1.96078438e-02 1.96078438e-02 0. 0. 0. 0. 0. 0. 0. 0. 0. 0.
      1.96078438e-02 0. 0. 0. 0. 1.96078438e-02 0. 0. 0. 0.
      1.96078438e-02 0. 3.92156877e-02 1.96078438e-02 0. 1.96078438e-02
      0. 1.96078438e-02 0. 1.96078438e-02 0. 1.96078438e-02 0. 0.
      1.96078438e-02 0. 1.96078438e-02 0. 1.96078438e-02 1.96078438e-02
      0. 0. 0. 1.96078438e-02 0. 0. 0. 1.96078438e-02 0. 0.
      1.96078438e-02 0. 0. 0. 0. 0. 0. 0. 0. 0. 0. 0. 0. 0. 0. 0. 0. 0.
      3.92156877e-02 0. 0. 0. 0. 0. 0. 0. 1.96078438e-02 1.96078438e-02
      0. 0. 0. 0. 0. 0. 0. 0. 0. 0. 0. 1.96078438e-02 1.96078438e-02 0.
      0. 0. 0. 0. 0. 0. 0. 1.96078438e-02 0. 1.96078438e-02
      1.96078438e-02 0. 3.92156877e-02 0. 0. 0. 0. 0. 0. 0. 0.
      1.96078438e-02 0. 1.96078438e-02 1.96078438e-02 0. 0. 0. 0. 0. 0.
      0. 0. 0. 1.96078438e-02 0. 0. 0. 0. 0. 0. 0. 1.96078438e-02 0. 0.
      0. 0. 0. 0. 0. 0. 0. 1.96078438e-02 0. 0. 3.92156877e-02 0. 0. 0.
      0. 0. 1.96078438e-02 0. 0. 7.84313753e-02 0. 1.96078438e-02 0.</_>
    <_>
      0. 0. 2.04081628e-02 0. 0. 0. 0. 0. 0. 0. 0. 0. 0. 0. 0. 0. 0. 0.
      2.04081628e-02 4.08163257e-02 0. 0. 0. 0. 0. 0. 0. 2.04081628e-02
      2.04081628e-02 2.04081628e-02 0. 0. 0. 0. 0. 0. 0. 0.
      2.04081628e-02 2.04081628e-02 0. 0. 0. 0. 0. 0. 0. 0. 0. 0. 0. 0.
      2.04081628e-02 0. 0. 0. 0. 2.04081628e-02 0. 0. 0. 0.
      2.04081628e-02 2.04081628e-02 0. 0. 0. 4.08163257e-02 0.
      6.12244904e-02 0. 0. 2.04081628e-02 2.04081628e-02 0. 0. 0. 0. 0.
      0. 2.04081628e-02 0. 0. 0. 2.04081628e-02 0. 0. 0. 0. 0.
      2.04081628e-02 0. 0. 0. 0. 0. 0. 2.04081628e-02 0. 0.
      2.04081628e-02 2.04081628e-02 0. 2.04081628e-02 2.04081628e-02 0.
      4.08163257e-02 2.04081628e-02 0. 4.08163257e-02 0. 0. 0. 0. 0. 0.
      2.04081628e-02 0. 0. 0. 0. 0. 2.04081628e-02 0. 0. 0. 0. 0. 0. 0.
      0. 0. 0. 0. 0. 0. 0. 0. 0. 0. 0. 0. 0. 2.04081628e-02
      2.04081628e-02 4.08163257e-02 0. 0. 2.04081628e-02 0. 0. 0. 0.
      2.04081628e-02 0. 0. 0. 0. 0. 0. 0. 0. 2.04081628e-02
      2.04081628e-02 0. 2.04081628e-02 0. 0. 0. 0. 0. 0. 2.04081628e-02
      0. 0. 0. 0. 2.04081628e-02 0. 0. 0. 0. 2.04081628e-02 0. 0. 0. 0.
      2.04081628e-02 0. 0. 0. 0. 0. 0. 0. 0. 2.04081628e-02 0. 0. 0.</_>
    <_>
      0. 9.25925933e-03 0. 0. 0. 0. 0. 0. 0. 0. 0. 0. 9.25925933e-03 0.
      9.25925933e-03 9.25925933e-03 1.85185187e-02 0. 9.25925933e-03 0.
      0. 0. 9.25925933e-03 9.25925933e-03 0. 9.25925933e-03 0.
      9.25925933e-03 1.85185187e-02 9.25925933e-03 0. 0. 0. 0.
      9.25925933e-03 0. 9.25925933e-03 9.25925933e-03 0. 0. 0. 0. 0.
      1.85185187e-02 0. 0. 2.77777780e-02 0. 0. 1.85185187e-02
      1.85185187e-02 0. 0. 9.25925933e-03 0. 9.25925933e-03 0. 0. 0. 0.
      0. 1.85185187e-02 9.25925933e-03 9.25925933e-03 0. 9.25925933e-03
      9.25925933e-03 0. 2.77777780e-02 9.25925933e-03 9.25925933e-03 0.
      0. 0. 0. 9.25925933e-03 0. 9.25925933e-03 1.85185187e-02 0. 0.
      9.25925933e-03 9.25925933e-03 0. 0. 2.77777780e-02 9.25925933e-03
      0. 0. 0. 9.25925933e-03 0. 0. 0. 0. 9.25925933e-03 0. 0.
      9.25925933e-03 0. 9.25925933e-03 0. 9.25925933e-03 9.25925933e-03
      0. 9.25925933e-03 0. 1.85185187e-02 0. 0. 0. 9.25925933e-03 0. 0.
      0. 0. 9.25925933e-03 9.25925933e-03 0. 0. 0. 0. 9.25925933e-03
      9.25925933e-03 9.25925933e-03 0. 9.25925933e-03 0. 0.
      9.25925933e-03 0. 0. 0. 1.85185187e-02 0. 9.25925933e-03 0. 0.
      9.25925933e-03 9.25925933e-03 0. 0. 0. 0. 0. 9.25925933e-03
      1.85185187e-02 0. 9.25925933e-03 0. 0. 0. 0. 9.25925933e-03
      1.85185187e-02 0. 0. 0. 0. 9.25925933e-03 9.25925933e-03
      1.85185187e-02 9.25925933e-03 0. 9.25925933e-03 2.77777780e-02 0.
      0. 0. 1.85185187e-02 0. 9.25925933e-03 9.25925933e-03 0. 0. 0. 0.
      2.77777780e-02 0. 2.77777780e-02 0. 0. 1.85185187e-02
      1.85185187e-02 0. 0. 0. 2.77777780e-02 0. 0. 0. 0. 0.
      9.25925933e-03 0. 0. 0. 0. 9.25925933e-03 1.85185187e-02</_>
    <_>
      0. 0. 0. 2.12765951e-02 0. 0. 0. 0. 0. 0. 2.12765951e-02 0. 0.
      2.12765951e-02 0. 0. 2.12765951e-02 0. 0. 0. 2.12765951e-02 0. 0.
      0. 0. 0. 0. 0. 0. 2.12765951e-02 2.12765951e-02 0. 0. 0. 0. 0.
      2.12765951e-02 0. 0. 0. 0. 4.25531901e-02 0. 0. 0. 0.
      4.25531901e-02 0. 0. 0. 2.12765951e-02 0. 0. 0. 0. 0. 0. 0.
      2.12765951e-02 0. 0. 0. 0. 2.12765951e-02 4.25531901e-02 0. 0. 0.
      0. 2.12765951e-02 0. 0. 0. 2.12765951e-02 2.12765951e-02 0. 0. 0.
      2.12765951e-02 0. 0. 0. 0. 0. 0. 0. 2.12765951e-02 0. 0. 0.
      2.12765951e-02 0. 0. 4.25531901e-02 0. 0. 2.12765951e-02 0. 0. 0.
      0. 2.12765951e-02 0. 0. 0. 0. 4.25531901e-02 0. 0. 0. 0. 0.
      2.12765951e-02 2.12765951e-02 0. 0. 0. 0. 0. 0. 0. 0. 0. 0. 0. 0.
      0. 2.12765951e-02 0. 0. 0. 0. 2.12765951e-02 0. 0. 0. 0. 0.
      2.12765951e-02 0. 0. 0. 0. 0. 2.12765951e-02 0. 0. 2.12765951e-02
      0. 0. 0. 0. 0. 0. 0. 0. 0. 0. 0. 2.12765951e-02 2.12765951e-02 0.
      0. 0. 0. 0. 4.25531901e-02 0. 2.12765951e-02 0. 0. 0. 0. 0. 0. 0.
      0. 0. 0. 2.12765951e-02 0. 2.12765951e-02 2.12765951e-02 0. 0. 0.
      0. 0. 0. 0. 2.12765951e-02 0. 0. 2.12765951e-02 0. 0. 0.
      2.12765951e-02 0. 0.</_>
    <_>
      0. 0. 0. 0. 1.47058824e-02 2.94117648e-02 0. 0. 1.47058824e-02
      1.47058824e-02 0. 0. 0. 0. 0. 1.47058824e-02 1.47058824e-02 0.
      1.47058824e-02 0. 0. 0. 1.47058824e-02 0. 0. 0. 0. 0. 0. 0. 0. 0.
      1.47058824e-02 1.47058824e-02 0. 0. 0. 0. 0. 0. 0. 0. 0. 0.
      1.47058824e-02 1.47058824e-02 1.47058824e-02 0. 0. 0.
      1.47058824e-02 0. 1.47058824e-02 0. 0. 1.47058824e-02
      1.47058824e-02 0. 0. 2.94117648e-02 2.94117648e-02 0. 0.
      1.47058824e-02 1.47058824e-02 4.41176482e-02 2.94117648e-02 0. 0.
      0. 1.47058824e-02 0. 0. 0. 0. 0. 0. 0. 1.47058824e-02 0. 0. 0. 0.
      0. 0. 0. 0. 0. 0. 0. 0. 1.47058824e-02 0. 1.47058824e-02
      1.47058824e-02 0. 0. 0. 0. 0. 0. 2.94117648e-02 0. 0. 0.
      1.47058824e-02 0. 0. 0. 0. 0. 0. 0. 0. 0. 4.41176482e-02 0.
      2.94117648e-02 0. 0. 0. 1.47058824e-02 0. 1.47058824e-02
      1.47058824e-02 2.94117648e-02 0. 0. 0. 0. 0. 0. 0. 0. 0.
      1.47058824e-02 0. 1.47058824e-02 2.94117648e-02 0. 0. 0. 0. 0.
      1.47058824e-02 0. 0. 0. 0. 0. 2.94117648e-02 1.47058824e-02 0. 0.
      1.47058824e-02 0. 1.47058824e-02 1.47058824e-02 0. 0.
      1.47058824e-02 0. 0. 0. 1.47058824e-02 1.47058824e-02 0. 0.
      1.47058824e-02 0. 0. 0. 1.47058824e-02 0. 0. 0. 0. 0. 0. 0. 0. 0.
      0. 0. 0. 0. 1.47058824e-02 1.47058824e-02 1.47058824e-02 0. 0. 0.
      2.94117648e-02 0. 0. 0. 0. 0. 0. 0.</_>
    <_>
      0. 0. 0. 0. 1.56250000e-02 3.12500000e-02 0. 0. 1.56250000e-02 0.
      0. 0. 1.56250000e-02 0. 0. 0. 1.56250000e-02 1.56250000e-02
      1.56250000e-02 0. 0. 1.56250000e-02 1.56250000e-02 1.56250000e-02
      1.56250000e-02 0. 0. 0. 1.56250000e-02 0. 0. 0. 1.56250000e-02
      3.12500000e-02 0. 0. 0. 0. 0. 0. 0. 0. 0. 0. 1.56250000e-02
      1.56250000e-02 0. 0. 0. 0. 1.56250000e-02 0. 0. 0. 0. 0.
      1.56250000e-02 0. 0. 0. 1.56250000e-02 0. 0. 1.56250000e-02
      1.56250000e-02 0. 1.56250000e-02 0. 1.56250000e-02 0. 0. 0. 0. 0.
      1.56250000e-02 0. 0. 0. 0. 1.56250000e-02 0. 0. 0. 0. 0. 0. 0. 0.
      0. 1.56250000e-02 0. 0. 0. 1.56250000e-02 1.56250000e-02
      1.56250000e-02 1.56250000e-02 0. 0. 0. 0. 3.12500000e-02 0. 0. 0.
      3.12500000e-02 0. 1.56250000e-02 0. 0. 0. 3.12500000e-02 0. 0. 0.
      3.12500000e-02 0. 0. 0. 0. 0. 0. 0. 0. 3.12500000e-02
      1.56250000e-02 0. 0. 0. 0. 0. 0. 0. 0. 0. 0. 0. 0. 1.56250000e-02
      1.56250000e-02 0. 1.56250000e-02 1.56250000e-02 0. 0. 0. 0.
      1.56250000e-02 0. 0. 0. 0. 1.56250000e-02 0. 0. 0. 0.
      3.12500000e-02 0. 1.56250000e-02 1.56250000e-02 0. 0. 0. 0.
      1.56250000e-02 0. 0. 1.56250000e-02 0. 0. 0. 1.56250000e-02 0. 0.
      0. 0. 0. 0. 0. 0. 1.56250000e-02 3.12500000e-02 0. 0. 0. 0.
      3.12500000e-02 0. 0. 0. 0. 1.56250000e-02 0. 0. 1.56250000e-02 0.
      0. 0. 0.</_>
    <_>
      0. 0. 0. 0. 0. 2.08333340e-02 0. 0. 0. 0. 0. 2.08333340e-02 0. 0.
      0. 0. 0. 4.16666679e-02 0. 0. 0. 0. 2.08333340e-02 0. 0.
      2.08333340e-02 0. 0. 0. 2.08333340e-02 0. 0. 0. 0. 0. 0.
      4.16666679e-02 0. 0. 0. 0. 0. 0. 0. 0. 4.16666679e-02 0. 0. 0. 0.
      0. 0. 0. 2.08333340e-02 0. 2.08333340e-02 0. 0. 0. 0. 0. 0. 0.
      2.08333340e-02 0. 0. 0. 0. 0. 0. 0. 0. 0. 0. 0. 0. 0. 0. 0. 0. 0.
      0. 0. 2.08333340e-02 0. 0. 2.08333340e-02 0. 0. 0. 0.
      2.08333340e-02 0. 0. 2.08333340e-02 0. 2.08333340e-02
      4.16666679e-02 0. 0. 0. 0. 0. 2.08333340e-02 2.08333340e-02 0. 0.
      2.08333340e-02 0. 0. 4.16666679e-02 0. 2.08333340e-02 0. 0.
      2.08333340e-02 0. 0. 0. 0. 0. 2.08333340e-02 0. 0. 0. 0. 0. 0. 0.
      2.08333340e-02 0. 0. 0. 0. 0. 0. 2.08333340e-02 0. 0. 0. 0. 0. 0.
      0. 4.16666679e-02 0. 0. 0. 0. 0. 0. 2.08333340e-02 0.
      2.08333340e-02 0. 0. 0. 2.08333340e-02 2.08333340e-02 0. 0. 0. 0.
      0. 0. 2.08333340e-02 0. 0. 0. 0. 0. 0. 2.08333340e-02 0.
      2.08333340e-02 0. 0. 0. 0. 0. 0. 2.08333340e-02 0. 0. 0. 0. 0. 0.
      0. 0. 0. 0. 2.08333340e-02 0. 0. 0. 2.08333340e-02 4.16666679e-02
      2.08333340e-02 4.16666679e-02</_>
    <_>
      1.53846154e-02 1.53846154e-02 0. 0. 0. 0. 0. 0. 0. 0. 0. 0.
      1.53846154e-02 1.53846154e-02 0. 0. 0. 1.53846154e-02
      1.53846154e-02 0. 1.53846154e-02 1.53846154e-02 0. 1.53846154e-02
      0. 3.07692308e-02 1.53846154e-02 0. 0. 1.53846154e-02 0. 0.
      1.53846154e-02 0. 0. 0. 0. 0. 0. 0. 3.07692308e-02 1.53846154e-02
      0. 1.53846154e-02 0. 0. 0. 0. 0. 3.07692308e-02 1.53846154e-02
      3.07692308e-02 0. 0. 0. 0. 0. 0. 0. 0. 0. 0. 0. 0. 1.53846154e-02
      1.53846154e-02 3.07692308e-02 0. 0. 0. 1.53846154e-02 0. 0. 0. 0.
      1.53846154e-02 3.07692308e-02 1.53846154e-02 0. 0. 0. 0.
      1.53846154e-02 0. 0. 0. 1.53846154e-02 0. 0. 3.07692308e-02
      1.53846154e-02 0. 0. 0. 1.53846154e-02 1.53846154e-02 0. 0.
      3.07692308e-02 0. 0. 0. 1.53846154e-02 0. 0. 0. 0. 0. 0. 0.
      1.53846154e-02 3.07692308e-02 0. 0. 1.53846154e-02 1.53846154e-02
      0. 0. 3.07692308e-02 1.53846154e-02 0. 0. 0. 1.53846154e-02 0. 0.
      0. 0. 0. 0. 0. 0. 0. 1.53846154e-02 0. 0. 0. 0. 1.53846154e-02 0.
      0. 0. 1.53846154e-02 0. 0. 0. 1.53846154e-02 0. 0. 0. 0. 0.
      1.53846154e-02 0. 0. 0. 0. 0. 3.07692308e-02 0. 1.53846154e-02 0.
      0. 0. 3.07692308e-02 0. 0. 0. 1.53846154e-02 0. 0. 0. 0. 0. 0. 0.
      0. 0. 0. 0. 0. 0. 0. 0. 0. 0. 0. 1.53846154e-02 0. 0. 0. 0. 0. 0.
      0. 0. 0. 1.53846154e-02 0. 1.53846154e-02</_>
    <_>
      0. 2.56410260e-02 0. 7.69230798e-02 0. 0. 0. 0. 0. 0.
      2.56410260e-02 0. 5.12820520e-02 0. 2.56410260e-02 2.56410260e-02
      0. 0. 0. 0. 0. 0. 2.56410260e-02 0. 0. 0. 0. 0. 0. 0. 0. 0. 0.
      2.56410260e-02 5.12820520e-02 2.56410260e-02 0. 0. 0. 0. 0. 0. 0.
      0. 0. 0. 0. 0. 0. 0. 0. 0. 2.56410260e-02 0. 0. 2.56410260e-02 0.
      0. 0. 0. 0. 0. 0. 2.56410260e-02 0. 0. 0. 0. 0. 0. 2.56410260e-02
      0. 0. 0. 0. 0. 0. 0. 0. 0. 0. 0. 0. 0. 0. 0. 2.56410260e-02 0. 0.
      0. 0. 0. 0. 0. 0. 0. 0. 0. 0. 0. 0. 0. 2.56410260e-02 0.
      2.56410260e-02 0. 0. 0. 0. 2.56410260e-02 0. 0. 0. 0. 0. 0.
      5.12820520e-02 0. 2.56410260e-02 0. 5.12820520e-02 0. 0. 0. 0. 0.
      0. 0. 0. 0. 0. 0. 2.56410260e-02 0. 0. 0. 0. 0. 0. 2.56410260e-02
      0. 0. 0. 0. 0. 0. 0. 0. 0. 2.56410260e-02 2.56410260e-02 0. 0. 0.
      0. 0. 0. 0. 0. 5.12820520e-02 0. 0. 0. 0. 0. 0. 0. 0. 0. 0. 0. 0.
      5.12820520e-02 0. 0. 5.12820520e-02 0. 0. 0. 0. 0. 0. 0. 0. 0. 0.
      0. 0. 0. 0. 0. 0. 0. 0. 0. 0. 0. 2.56410260e-02 0. 2.56410260e-02</_>
    <_>
      1.69491526e-02 0. 0. 0. 0. 0. 0. 0. 3.38983051e-02 0.
      1.69491526e-02 0. 1.69491526e-02 0. 0. 0. 0. 0. 0. 0. 0. 0.
      1.69491526e-02 0. 0. 1.69491526e-02 0. 0. 0. 0. 0. 1.69491526e-02
      0. 0. 0. 0. 1.69491526e-02 1.69491526e-02 0. 1.69491526e-02
      1.69491526e-02 0. 0. 0. 0. 1.69491526e-02 1.69491526e-02 0. 0. 0.
      0. 0. 0. 1.69491526e-02 3.38983051e-02 0. 0. 0. 0. 0.
      1.69491526e-02 0. 0. 0. 0. 0. 0. 0. 3.38983051e-02 0. 0. 0. 0.
      1.69491526e-02 0. 0. 0. 0. 3.38983051e-02 3.38983051e-02 0. 0. 0.
      0. 1.69491526e-02 0. 1.69491526e-02 0. 0. 0. 0. 0. 0. 0. 0.
      1.69491526e-02 0. 1.69491526e-02 0. 0. 1.69491526e-02
      1.69491526e-02 0. 0. 0. 0. 0. 0. 0. 3.38983051e-02 0. 0.
      1.69491526e-02 0. 0. 0. 1.69491526e-02 0. 0. 0. 0. 1.69491526e-02
      1.69491526e-02 0. 0. 0. 0. 0. 0. 0. 0. 0. 0. 0. 0. 0.
      3.38983051e-02 0. 0. 1.69491526e-02 0. 0. 0. 0. 0. 0.
      1.69491526e-02 1.69491526e-02 0. 0. 0. 0. 0. 0. 1.69491526e-02 0.
      0. 0. 0. 1.69491526e-02 0. 1.69491526e-02 1.69491526e-02 0. 0. 0.
      0. 0. 1.69491526e-02 1.69491526e-02 0. 0. 0. 3.38983051e-02 0. 0.
      0. 1.69491526e-02 0. 1.69491526e-02 0. 3.38983051e-02 0. 0. 0. 0.
      1.69491526e-02 1.69491526e-02 0. 0. 0. 1.69491526e-02 0. 0. 0. 0.
      3.38983051e-02 0. 0. 0.</_>
    <_>
      0. 0. 1.42857144e-02 0. 0. 0. 2.85714287e-02 0. 0. 1.42857144e-02
      0. 0. 1.42857144e-02 0. 0. 1.42857144e-02 0. 2.85714287e-02
      4.28571440e-02 0. 1.42857144e-02 0. 1.42857144e-02 1.42857144e-02
      0. 0. 1.42857144e-02 0. 0. 0. 1.42857144e-02 0. 1.42857144e-02 0.
      0. 0. 0. 1.42857144e-02 0. 0. 2.85714287e-02 0. 0. 1.42857144e-02
      0. 1.42857144e-02 0. 0. 0. 1.42857144e-02 4.28571440e-02 0. 0. 0.
      0. 1.42857144e-02 1.42857144e-02 0. 0. 0. 1.42857144e-02 0. 0.
      1.42857144e-02 1.42857144e-02 0. 4.28571440e-02 0. 1.42857144e-02
      1.42857144e-02 0. 0. 0. 0. 0. 0. 0. 1.42857144e-02 0. 0. 0. 0. 0.
      2.85714287e-02 0. 2.85714287e-02 0. 0. 0. 0. 1.42857144e-02
      1.42857144e-02 2.85714287e-02 0. 0. 1.42857144e-02 0.
      1.42857144e-02 0. 0. 1.42857144e-02 0. 0. 0. 1.42857144e-02 0.
      1.42857144e-02 0. 0. 0. 0. 0. 0. 0. 0. 0. 0. 0. 0. 0. 0. 0. 0. 0.
      0. 0. 0. 0. 0. 1.42857144e-02 0. 0. 0. 0. 0. 0. 0. 0.
      5.71428575e-02 0. 0. 0. 0. 0. 0. 0. 0. 0. 0. 0. 1.42857144e-02 0.
      0. 0. 1.42857144e-02 0. 0. 0. 0. 0. 1.42857144e-02 1.42857144e-02
      0. 0. 2.85714287e-02 1.42857144e-02 0. 0. 1.42857144e-02 0. 0. 0.
      1.42857144e-02 0. 1.42857144e-02 1.42857144e-02 0. 0. 0. 0.
      1.42857144e-02 0. 1.42857144e-02 0. 0. 1.42857144e-02 0. 0. 0. 0.
      0. 0. 0. 0. 1.42857144e-02 0. 0. 0. 0. 0.</_>
    <_>
      0. 1.92307699e-02 0. 1.92307699e-02 0. 0. 0. 0. 0. 0.
      1.92307699e-02 0. 0. 1.92307699e-02 0. 0. 1.92307699e-02 0. 0.
      1.92307699e-02 0. 0. 0. 0. 0. 0. 0. 3.84615399e-02 0. 0. 0. 0. 0.
      0. 1.92307699e-02 0. 0. 0. 0. 0. 0. 0. 0. 0. 0. 1.92307699e-02 0.
      0. 0. 1.92307699e-02 3.84615399e-02 0. 0. 0. 0. 0. 0.
      1.92307699e-02 1.92307699e-02 0. 0. 0. 0. 1.92307699e-02 0. 0. 0.
      0. 0. 3.84615399e-02 1.92307699e-02 0. 0. 0. 0. 3.84615399e-02 0.
      0. 0. 0. 0. 1.92307699e-02 0. 0. 0. 0. 0. 1.92307699e-02 0. 0.
      1.92307699e-02 0. 0. 0. 0. 0. 1.92307699e-02 0. 0. 0. 0. 0. 0.
      1.92307699e-02 0. 0. 0. 0. 0. 1.92307699e-02 0. 0. 0. 0. 0. 0. 0.
      1.92307699e-02 3.84615399e-02 0. 0. 0. 0. 0. 0. 0. 0. 0. 0. 0. 0.
      1.92307699e-02 1.92307699e-02 0. 1.92307699e-02 0. 1.92307699e-02
      1.92307699e-02 0. 0. 0. 0. 0. 0. 0. 1.92307699e-02 1.92307699e-02
      1.92307699e-02 0. 0. 0. 0. 0. 0. 1.92307699e-02 0. 0. 0.
      3.84615399e-02 1.92307699e-02 0. 0. 0. 3.84615399e-02
      1.92307699e-02 0. 0. 0. 1.92307699e-02 1.92307699e-02 0. 0.
      1.92307699e-02 1.92307699e-02 0. 0. 0. 0. 0. 0. 3.84615399e-02 0.
      0. 0. 0. 0. 0. 0. 0. 0. 0. 0. 1.92307699e-02 0. 0. 0. 0. 0. 0. 0.</_>
    <_>
      1.69491526e-02 0. 0. 0. 1.69491526e-02 0. 1.69491526e-02 0. 0. 0.
      0. 0. 1.69491526e-02 0. 0. 0. 0. 0. 0. 1.69491526e-02 0. 0. 0.
      1.69491526e-02 0. 0. 0. 0. 0. 3.38983051e-02 0. 0. 0. 0. 0. 0. 0.
      0. 0. 0. 0. 0. 0. 1.69491526e-02 0. 0. 5.08474559e-02 0. 0. 0. 0.
      1.69491526e-02 0. 0. 0. 1.69491526e-02 0. 0. 1.69491526e-02
      3.38983051e-02 1.69491526e-02 0. 0. 1.69491526e-02 0. 0. 0. 0. 0.
      0. 3.38983051e-02 0. 1.69491526e-02 0. 0. 1.69491526e-02 0. 0. 0.
      1.69491526e-02 0. 0. 0. 5.08474559e-02 0. 0. 0. 0. 0.
      1.69491526e-02 1.69491526e-02 0. 1.69491526e-02 0. 0.
      3.38983051e-02 0. 0. 0. 0. 0. 0. 0. 0. 0. 1.69491526e-02
      1.69491526e-02 0. 0. 0. 0. 1.69491526e-02 0. 0. 0. 0. 0.
      1.69491526e-02 1.69491526e-02 1.69491526e-02 0. 0. 0. 0. 0.
      1.69491526e-02 0. 0. 0. 0. 0. 0. 0. 0. 0. 3.38983051e-02 0. 0. 0.
      0. 0. 1.69491526e-02 0. 0. 0. 0. 0. 0. 0. 0. 1.69491526e-02 0. 0.
      1.69491526e-02 0. 1.69491526e-02 0. 0. 0. 3.38983051e-02 0. 0.
      1.69491526e-02 0. 1.69491526e-02 0. 0. 1.69491526e-02 0.
      3.38983051e-02 0. 0. 0. 0. 1.69491526e-02 3.38983051e-02 0. 0. 0.
      0. 0. 0. 1.69491526e-02 0. 0. 0. 0. 0. 0. 0. 0. 0. 0. 0.
      1.69491526e-02 0. 0. 1.69491526e-02 0. 1.69491526e-02</_>
    <_>
      0. 0. 0. 0. 0. 3.63636352e-02 0. 0. 0. 0. 0. 0. 1.81818176e-02
      1.81818176e-02 0. 0. 0. 0. 0. 0. 0. 0. 0. 0. 0. 0. 0. 0. 0.
      1.81818176e-02 1.81818176e-02 0. 0. 0. 0. 0. 0. 0. 0.
      1.81818176e-02 0. 0. 0. 0. 0. 0. 0. 7.27272704e-02 3.63636352e-02
      0. 0. 0. 1.81818176e-02 0. 0. 0. 1.81818176e-02 0. 0. 0. 0. 0. 0.
      0. 0. 0. 0. 1.81818176e-02 0. 0. 0. 0. 0. 0. 0. 0. 3.63636352e-02
      0. 0. 0. 0. 0. 0. 0. 0. 0. 0. 0. 0. 0. 0. 1.81818176e-02 0. 0. 0.
      0. 0. 0. 0. 0. 0. 0. 1.81818176e-02 0. 0. 0. 0. 0. 0. 0.
      1.81818176e-02 0. 0. 0. 0. 0. 3.63636352e-02 1.81818176e-02 0. 0.
      0. 0. 0. 0. 0. 1.81818176e-02 0. 0. 1.81818176e-02 0. 0.
      1.81818176e-02 1.81818176e-02 0. 1.81818176e-02 0. 0.
      3.63636352e-02 1.81818176e-02 0. 0. 1.81818176e-02 0. 0.
      3.63636352e-02 0. 0. 0. 0. 5.45454547e-02 0. 0. 0. 1.81818176e-02
      1.81818176e-02 0. 1.81818176e-02 1.81818176e-02 0. 0. 0. 0. 0. 0.
      5.45454547e-02 0. 0. 1.81818176e-02 1.81818176e-02 0. 0. 0. 0. 0.
      0. 0. 0. 0. 1.81818176e-02 0. 1.81818176e-02 1.81818176e-02 0. 0.
      3.63636352e-02 1.81818176e-02 0. 0. 0. 0. 0. 0. 0. 0. 0. 0.
      1.81818176e-02 1.81818176e-02 0. 0.</_>
    <_>
      0. 0. 2.32558139e-02 0. 0. 0. 0. 0. 0. 2.32558139e-02 0. 0. 0. 0.
      2.32558139e-02 0. 0. 0. 0. 6.97674453e-02 0. 0. 0. 2.32558139e-02
      0. 0. 2.32558139e-02 0. 0. 0. 0. 2.32558139e-02 0. 0.
      2.32558139e-02 4.65116277e-02 0. 2.32558139e-02 0. 2.32558139e-02
      0. 0. 0. 0. 0. 0. 0. 0. 0. 0. 0. 0. 0. 0. 0. 0. 0. 0.
      2.32558139e-02 0. 0. 0. 0. 2.32558139e-02 0. 0. 0. 2.32558139e-02
      2.32558139e-02 0. 0. 0. 2.32558139e-02 0. 0. 0. 0. 0. 0. 0. 0. 0.
      0. 0. 0. 0. 2.32558139e-02 0. 0. 0. 0. 0. 0. 0. 2.32558139e-02 0.
      0. 0. 0. 0. 0. 2.32558139e-02 2.32558139e-02 0. 0. 0. 0. 0. 0. 0.
      2.32558139e-02 0. 0. 0. 0. 0. 0. 0. 2.32558139e-02 0. 0. 0.
      2.32558139e-02 0. 0. 0. 2.32558139e-02 0. 0. 0. 2.32558139e-02 0.
      0. 0. 0. 0. 0. 0. 0. 2.32558139e-02 0. 2.32558139e-02
      2.32558139e-02 0. 0. 0. 0. 0. 0. 0. 2.32558139e-02 0.
      2.32558139e-02 0. 0. 0. 0. 0. 0. 0. 0. 0. 0. 4.65116277e-02 0. 0.
      0. 2.32558139e-02 0. 0. 0. 0. 0. 0. 2.32558139e-02 2.32558139e-02
      2.32558139e-02 0. 0. 0. 0. 0. 0. 2.32558139e-02 0. 2.32558139e-02
      0. 0. 0. 2.32558139e-02 0. 0. 0. 2.32558139e-02 0. 0. 0. 0. 0. 0.</_>
    <_>
      0. 1.58730168e-02 0. 0. 0. 1.58730168e-02 0. 0. 0. 0. 0.
      1.58730168e-02 0. 0. 1.58730168e-02 0. 3.17460336e-02
      1.58730168e-02 0. 0. 0. 0. 3.17460336e-02 0. 3.17460336e-02 0.
      1.58730168e-02 0. 1.58730168e-02 1.58730168e-02 0. 0.
      1.58730168e-02 0. 0. 0. 1.58730168e-02 0. 0. 1.58730168e-02 0. 0.
      0. 1.58730168e-02 1.58730168e-02 0. 0. 0. 0. 0. 3.17460336e-02 0.
      0. 0. 0. 0. 0. 0. 1.58730168e-02 0. 1.58730168e-02 0. 0.
      1.58730168e-02 0. 1.58730168e-02 0. 0. 0. 0. 0. 0. 1.58730168e-02
      1.58730168e-02 0. 1.58730168e-02 0. 0. 0. 3.17460336e-02 0. 0. 0.
      0. 0. 0. 0. 1.58730168e-02 0. 1.58730168e-02 0. 0. 0. 0. 0.
      1.58730168e-02 0. 0. 0. 0. 0. 0. 0. 0. 0. 0. 0. 3.17460336e-02 0.
      0. 0. 0. 0. 0. 0. 1.58730168e-02 0. 1.58730168e-02 0. 0. 0.
      1.58730168e-02 0. 0. 0. 0. 0. 0. 0. 1.58730168e-02 1.58730168e-02
      0. 0. 1.58730168e-02 0. 0. 0. 0. 0. 1.58730168e-02 0.
      1.58730168e-02 1.58730168e-02 0. 0. 0. 0. 0. 3.17460336e-02 0. 0.
      0. 1.58730168e-02 0. 0. 4.76190522e-02 0. 0. 1.58730168e-02 0. 0.
      0. 0. 3.17460336e-02 0. 0. 0. 1.58730168e-02 0. 1.58730168e-02 0.
      0. 3.17460336e-02 1.58730168e-02 0. 0. 0. 0. 0. 0. 0. 0. 0. 0. 0.
      0. 0. 0. 0. 1.58730168e-02 0. 0. 0. 0. 0. 0. 3.17460336e-02
      1.58730168e-02 0. 1.58730168e-02</_>
    <_>
      0. 0. 0. 0. 0. 0. 0. 0. 0. 0. 0. 0. 3.70370373e-02 0. 0. 0.
      1.85185187e-02 0. 1.85185187e-02 0. 0. 0. 0. 0. 0. 0. 0. 0.
      1.85185187e-02 0. 1.85185187e-02 1.85185187e-02 0. 0. 0.
      1.85185187e-02 0. 0. 1.85185187e-02 0. 0. 0. 0. 0. 5.55555560e-02
      1.85185187e-02 1.85185187e-02 0. 0. 3.70370373e-02 0. 0. 0. 0. 0.
      0. 0. 0. 0. 0. 0. 0. 0. 0. 0. 0. 0. 1.85185187e-02 0.
      1.85185187e-02 0. 0. 0. 1.85185187e-02 0. 1.85185187e-02 0. 0. 0.
      0. 1.85185187e-02 0. 1.85185187e-02 0. 0. 0. 0. 3.70370373e-02 0.
      0. 0. 0. 0. 0. 1.85185187e-02 0. 0. 0. 0. 0. 0. 1.85185187e-02
      1.85185187e-02 1.85185187e-02 0. 1.85185187e-02 0. 0. 0.
      1.85185187e-02 0. 0. 0. 0. 1.85185187e-02 0. 1.85185187e-02
      3.70370373e-02 0. 0. 0. 0. 0. 0. 0. 0. 1.85185187e-02 0.
      1.85185187e-02 0. 1.85185187e-02 5.55555560e-02 0. 0.
      1.85185187e-02 0. 0. 0. 0. 0. 0. 0. 0. 0. 3.70370373e-02 0. 0. 0.
      0. 0. 0. 0. 0. 0. 0. 0. 0. 0. 1.85185187e-02 0. 0. 0. 0.
      1.85185187e-02 1.85185187e-02 0. 1.85185187e-02 1.85185187e-02 0.
      1.85185187e-02 1.85185187e-02 0. 0. 1.85185187e-02 0. 0. 0. 0. 0.
      1.85185187e-02 0. 0. 0. 0. 0. 0. 0. 0. 0. 0. 1.85185187e-02 0. 0.
      0. 0. 0. 0. 1.85185187e-02 0. 0.</_>
    <_>
      0. 1.88679248e-02 0. 0. 0. 0. 0. 0. 0. 0. 0. 0. 1.88679248e-02 0.
      0. 0. 0. 0. 0. 0. 0. 1.88679248e-02 0. 1.88679248e-02 0. 0. 0.
      1.88679248e-02 0. 0. 0. 1.88679248e-02 0. 0. 0. 0. 0. 0.
      1.88679248e-02 0. 0. 1.88679248e-02 1.88679248e-02 0. 0. 0.
      1.88679248e-02 0. 0. 1.88679248e-02 1.88679248e-02 0. 0. 0. 0. 0.
      0. 1.88679248e-02 0. 0. 3.77358496e-02 3.77358496e-02 0. 0. 0. 0.
      1.88679248e-02 0. 0. 0. 0. 0. 0. 1.88679248e-02 1.88679248e-02
      1.88679248e-02 1.88679248e-02 1.88679248e-02 0. 1.88679248e-02 0.
      0. 0. 0. 1.88679248e-02 0. 0. 0. 0. 0. 1.88679248e-02 0. 0. 0.
      1.88679248e-02 0. 0. 1.88679248e-02 0. 0. 0. 0. 1.88679248e-02 0.
      1.88679248e-02 1.88679248e-02 0. 0. 0. 0. 0. 0. 0. 0. 0.
      1.88679248e-02 0. 0. 0. 0. 0. 0. 0. 0. 1.88679248e-02
      1.88679248e-02 1.88679248e-02 1.88679248e-02 0. 1.88679248e-02 0.
      0. 0. 0. 0. 0. 0. 0. 1.88679248e-02 0. 0. 0. 0. 1.88679248e-02
      1.88679248e-02 0. 1.88679248e-02 0. 0. 3.77358496e-02 0. 0.
      1.88679248e-02 0. 0. 1.88679248e-02 0. 0. 0. 0. 1.88679248e-02 0.
      1.88679248e-02 0. 0. 0. 0. 0. 0. 0. 1.88679248e-02 0.
      1.88679248e-02 0. 0. 0. 0. 0. 0. 1.88679248e-02 0. 0. 0. 0. 0. 0.
      0. 0. 0. 1.88679248e-02 0. 0. 0. 0. 3.77358496e-02 0. 0. 0. 0. 0.</_>
    <_>
      0. 0. 0. 0. 0. 1.96078438e-02 0. 0. 0. 0. 0. 0. 0. 0. 0. 0.
      1.96078438e-02 0. 0. 1.96078438e-02 0. 0. 0. 1.96078438e-02 0. 0.
      1.96078438e-02 0. 0. 0. 1.96078438e-02 0. 0. 0. 0. 0. 0.
      1.96078438e-02 0. 0. 0. 1.96078438e-02 0. 1.96078438e-02 0. 0. 0.
      0. 0. 1.96078438e-02 0. 1.96078438e-02 0. 0. 0. 0. 0. 0. 0.
      1.96078438e-02 0. 0. 0. 1.96078438e-02 0. 0. 1.96078438e-02 0.
      3.92156877e-02 1.96078438e-02 0. 0. 0. 1.96078438e-02 0.
      1.96078438e-02 0. 0. 0. 0. 0. 0. 0. 0. 1.96078438e-02 0. 0.
      1.96078438e-02 0. 0. 0. 0. 0. 0. 0. 0. 0. 0. 3.92156877e-02 0.
      1.96078438e-02 0. 0. 0. 0. 1.96078438e-02 0. 1.96078438e-02
      1.96078438e-02 1.96078438e-02 0. 0. 0. 3.92156877e-02
      1.96078438e-02 0. 0. 0. 1.96078438e-02 0. 0. 1.96078438e-02 0. 0.
      0. 0. 0. 0. 0. 1.96078438e-02 0. 1.96078438e-02 0. 0.
      1.96078438e-02 0. 0. 0. 0. 0. 0. 0. 0. 0. 0. 0. 3.92156877e-02 0.
      1.96078438e-02 0. 1.96078438e-02 1.96078438e-02 0. 1.96078438e-02
      0. 0. 0. 0. 0. 0. 0. 0. 1.96078438e-02 0. 0. 0. 0. 0. 0. 0. 0. 0.
      1.96078438e-02 1.96078438e-02 0. 0. 0. 0. 0. 1.96078438e-02 0. 0.
      1.96078438e-02 1.96078438e-02 0. 0. 0. 0. 0. 0. 0. 0.
      1.96078438e-02 0. 0. 0. 0. 1.96078438e-02 1.96078438e-02 0.</_>
    <_>
      0. 0. 0. 0. 0. 1.47058824e-02 1.47058824e-02 1.47058824e-02 0. 0.
      0. 0. 0. 0. 1.47058824e-02 0. 0. 0. 1.47058824e-02 0. 0.
      4.41176482e-02 0. 1.47058824e-02 0. 5.88235296e-02 0.
      1.47058824e-02 0. 0. 0. 0. 0. 1.47058824e-02 1.47058824e-02 0. 0.
      0. 2.94117648e-02 1.47058824e-02 2.94117648e-02 0. 0. 0. 0.
      1.47058824e-02 0. 0. 0. 0. 0. 0. 0. 1.47058824e-02 0. 0. 0. 0. 0.
      0. 1.47058824e-02 0. 0. 1.47058824e-02 0. 0. 0. 0. 0. 0. 0. 0. 0.
      0. 0. 0. 1.47058824e-02 0. 0. 0. 0. 0. 0. 0. 0. 2.94117648e-02
      1.47058824e-02 0. 0. 1.47058824e-02 1.47058824e-02 1.47058824e-02
      0. 0. 0. 0. 0. 0. 0. 0. 1.47058824e-02 0. 0. 0. 0. 0. 0.
      1.47058824e-02 0. 1.47058824e-02 0. 0. 0. 1.47058824e-02 0. 0. 0.
      2.94117648e-02 0. 0. 1.47058824e-02 0. 0. 1.47058824e-02 0.
      2.94117648e-02 0. 1.47058824e-02 0. 0. 0. 5.88235296e-02 0. 0. 0.
      1.47058824e-02 0. 0. 0. 1.47058824e-02 0. 0. 0. 1.47058824e-02
      1.47058824e-02 2.94117648e-02 0. 0. 0. 0. 0. 0. 2.94117648e-02
      1.47058824e-02 0. 0. 0. 0. 0. 0. 0. 0. 1.47058824e-02 0.
      1.47058824e-02 0. 0. 0. 0. 0. 0. 0. 1.47058824e-02 1.47058824e-02
      1.47058824e-02 0. 0. 1.47058824e-02 0. 0. 0. 0. 1.47058824e-02
      1.47058824e-02 0. 1.47058824e-02 1.47058824e-02 0. 0. 0. 0.
      1.47058824e-02 0. 0. 0. 0. 0. 0. 0. 1.47058824e-02</_>
    <_>
      4.10958901e-02 0. 0. 0. 0. 0. 0. 0. 0. 1.36986300e-02
      4.10958901e-02 0. 0. 0. 0. 0. 0. 0. 0. 0. 0. 2.73972601e-02
      2.73972601e-02 0. 1.36986300e-02 1.36986300e-02 0. 0. 0. 0. 0. 0.
      0. 0. 1.36986300e-02 1.36986300e-02 0. 0. 0. 0. 0. 0. 0.
      1.36986300e-02 0. 0. 0. 9.58904102e-02 0. 0. 0. 1.36986300e-02 0.
      0. 0. 0. 0. 0. 1.36986300e-02 0. 1.36986300e-02 2.73972601e-02 0.
      0. 0. 0. 1.36986300e-02 1.36986300e-02 1.36986300e-02 0. 0. 0. 0.
      0. 0. 2.73972601e-02 1.36986300e-02 4.10958901e-02 1.36986300e-02
      0. 0. 0. 0. 0. 0. 0. 0. 0. 0. 0. 1.36986300e-02 0. 0. 0. 0. 0. 0.
      0. 0. 0. 1.36986300e-02 0. 1.36986300e-02 0. 0. 0. 0.
      4.10958901e-02 0. 0. 0. 1.36986300e-02 0. 0. 0. 1.36986300e-02 0.
      0. 1.36986300e-02 0. 0. 0. 1.36986300e-02 1.36986300e-02
      2.73972601e-02 0. 1.36986300e-02 0. 0. 0. 1.36986300e-02
      2.73972601e-02 0. 4.10958901e-02 0. 0. 0. 0. 2.73972601e-02 0. 0.
      1.36986300e-02 0. 0. 0. 0. 0. 0. 0. 1.36986300e-02 0. 0. 0. 0. 0.
      0. 0. 0. 0. 1.36986300e-02 0. 1.36986300e-02 0. 1.36986300e-02 0.
      1.36986300e-02 0. 0. 0. 0. 0. 1.36986300e-02 0. 0. 0. 0. 0. 0. 0.
      0. 0. 0. 0. 0. 1.36986300e-02 0. 0. 0. 1.36986300e-02 0. 0.
      2.73972601e-02 1.36986300e-02 1.36986300e-02 0. 0. 0. 0. 0. 0.</_>
    <_>
      0. 0. 0. 0. 0. 0. 0. 0. 0. 0. 1.63934417e-02 0. 1.63934417e-02 0.
      0. 1.63934417e-02 0. 0. 0. 0. 0. 0. 1.63934417e-02 0. 0. 0. 0. 0.
      0. 0. 1.63934417e-02 0. 0. 1.63934417e-02 0. 0. 1.63934417e-02 0.
      0. 0. 3.27868834e-02 0. 1.63934417e-02 1.63934417e-02 0.
      1.63934417e-02 0. 4.91803251e-02 0. 0. 0. 0. 0. 0. 0. 0. 0. 0.
      1.63934417e-02 0. 0. 0. 0. 0. 0. 0. 0. 0. 1.63934417e-02
      1.63934417e-02 0. 0. 0. 1.63934417e-02 3.27868834e-02 0. 0. 0. 0.
      1.63934417e-02 0. 0. 0. 0. 0. 0. 3.27868834e-02 0. 1.63934417e-02
      0. 0. 1.63934417e-02 0. 1.63934417e-02 1.63934417e-02 0. 0. 0. 0.
      1.63934417e-02 0. 0. 0. 1.63934417e-02 1.63934417e-02 0.
      1.63934417e-02 0. 0. 0. 1.63934417e-02 0. 0. 1.63934417e-02 0. 0.
      0. 0. 0. 0. 0. 3.27868834e-02 0. 0. 0. 0. 1.63934417e-02 0.
      1.63934417e-02 0. 0. 0. 0. 1.63934417e-02 0. 0. 1.63934417e-02 0.
      0. 3.27868834e-02 1.63934417e-02 1.63934417e-02 0. 0.
      1.63934417e-02 0. 0. 0. 0. 3.27868834e-02 0. 0. 0. 0. 0.
      1.63934417e-02 0. 3.27868834e-02 0. 0. 0. 0. 0. 0. 0. 0. 0.
      1.63934417e-02 0. 0. 0. 0. 0. 0. 1.63934417e-02 1.63934417e-02
      1.63934417e-02 1.63934417e-02 0. 0. 0. 0. 0. 0. 0. 3.27868834e-02
      1.63934417e-02 0. 0. 0. 0. 0. 0. 0. 0. 0. 0. 3.27868834e-02 0.
      1.63934417e-02</_>
    <_>
      2.04081628e-02 0. 0. 0. 0. 0. 0. 0. 0. 0. 0. 2.04081628e-02 0. 0.
      0. 2.04081628e-02 0. 0. 0. 0. 0. 0. 0. 0. 2.04081628e-02 0. 0.
      4.08163257e-02 0. 0. 2.04081628e-02 0. 0. 4.08163257e-02 0. 0.
      2.04081628e-02 0. 0. 0. 0. 0. 0. 0. 0. 2.04081628e-02 0. 0. 0. 0.
      0. 0. 2.04081628e-02 0. 0. 0. 0. 2.04081628e-02 0. 0.
      2.04081628e-02 2.04081628e-02 0. 0. 0. 0. 0. 2.04081628e-02 0. 0.
      0. 2.04081628e-02 0. 2.04081628e-02 2.04081628e-02 0. 0. 0.
      2.04081628e-02 2.04081628e-02 0. 0. 0. 0. 2.04081628e-02
      2.04081628e-02 0. 0. 0. 0. 2.04081628e-02 2.04081628e-02 0. 0. 0.
      0. 0. 0. 0. 0. 0. 0. 0. 2.04081628e-02 0. 2.04081628e-02 0. 0. 0.
      0. 0. 0. 0. 2.04081628e-02 0. 2.04081628e-02 0. 0. 0. 0. 0.
      4.08163257e-02 0. 0. 0. 0. 0. 0. 0. 0. 0. 0. 2.04081628e-02 0. 0.
      2.04081628e-02 0. 2.04081628e-02 0. 0. 0. 0. 0. 0. 2.04081628e-02
      0. 0. 0. 0. 2.04081628e-02 0. 2.04081628e-02 0. 0. 0. 0. 0. 0. 0.
      0. 0. 0. 0. 0. 0. 0. 0. 2.04081628e-02 0. 0. 0. 0. 0. 0.
      4.08163257e-02 0. 4.08163257e-02 0. 0. 0. 2.04081628e-02 0. 0.
      6.12244904e-02 0. 0. 0. 0. 0. 0. 4.08163257e-02 0. 0. 0. 0. 0. 0.
      0. 2.04081628e-02 0.</_>
    <_>
      0. 0. 0. 0. 0. 0. 2.70270277e-02 0. 0. 2.70270277e-02 0. 0. 0. 0.
      0. 0. 0. 0. 2.70270277e-02 0. 0. 0. 0. 0. 0. 0. 0. 2.70270277e-02
      2.70270277e-02 0. 0. 0. 0. 0. 0. 0. 0. 0. 0. 0. 0. 0. 0. 0.
      2.70270277e-02 0. 0. 5.40540554e-02 0. 0. 0. 0. 0. 0. 0.
      2.70270277e-02 0. 2.70270277e-02 0. 0. 0. 0. 0. 0. 0. 0. 0. 0.
      2.70270277e-02 0. 0. 0. 0. 0. 0. 0. 0. 0. 0. 0. 0. 0. 0. 0. 0. 0.
      2.70270277e-02 0. 0. 0. 0. 5.40540554e-02 0. 5.40540554e-02 0. 0.
      0. 0. 0. 0. 0. 1.08108111e-01 1.08108111e-01 0. 0. 5.40540554e-02
      0. 0. 0. 0. 0. 0. 0. 0. 0. 0. 0. 0. 0. 0. 0. 0. 2.70270277e-02 0.
      0. 2.70270277e-02 0. 0. 0. 0. 0. 0. 0. 0. 0. 0. 0. 0. 0. 0. 0. 0.
      0. 0. 0. 0. 0. 0. 0. 0. 2.70270277e-02 0. 0. 2.70270277e-02
      2.70270277e-02 2.70270277e-02 0. 2.70270277e-02 0. 0. 0. 0. 0. 0.
      0. 0. 0. 0. 0. 0. 0. 0. 0. 0. 0. 0. 0. 0. 0. 0. 0. 0.
      2.70270277e-02 0. 8.10810849e-02 0. 0. 0. 0. 0. 0. 0. 0. 0. 0. 0.
      0. 0. 0. 0.</_>
    <_>
      0. 1.49253728e-02 0. 0. 0. 1.49253728e-02 1.49253728e-02
      1.49253728e-02 0. 0. 0. 0. 0. 0. 0. 0. 1.49253728e-02
      1.49253728e-02 0. 0. 0. 0. 0. 1.49253728e-02 0. 0. 0.
      1.49253728e-02 0. 0. 0. 1.49253728e-02 2.98507456e-02 0.
      1.49253728e-02 1.49253728e-02 0. 1.49253728e-02 0. 0.
      1.49253728e-02 0. 0. 1.49253728e-02 1.49253728e-02 1.49253728e-02
      0. 1.49253728e-02 0. 0. 1.49253728e-02 0. 0. 1.49253728e-02 0.
      1.49253728e-02 0. 0. 0. 0. 0. 0. 1.49253728e-02 0. 0. 0. 0. 0. 0.
      0. 0. 0. 0. 0. 1.49253728e-02 0. 0. 0. 0. 0. 0. 0. 1.49253728e-02
      0. 0. 1.49253728e-02 1.49253728e-02 0. 0. 0. 0. 0. 0.
      1.49253728e-02 2.98507456e-02 0. 1.49253728e-02 0. 0.
      1.49253728e-02 1.49253728e-02 0. 4.47761193e-02 2.98507456e-02 0.
      0. 0. 5.97014911e-02 0. 0. 0. 0. 0. 0. 0. 1.49253728e-02 0. 0. 0.
      0. 0. 1.49253728e-02 1.49253728e-02 0. 0. 0. 0. 1.49253728e-02 0.
      0. 0. 0. 0. 0. 0. 0. 0. 1.49253728e-02 0. 0. 1.49253728e-02 0. 0.
      0. 0. 0. 0. 0. 1.49253728e-02 0. 0. 0. 0. 0. 0. 0. 1.49253728e-02
      0. 0. 0. 0. 0. 0. 0. 0. 0. 0. 0. 0. 1.49253728e-02 0.
      5.97014911e-02 0. 0. 1.49253728e-02 0. 0. 0. 0. 0. 0. 0. 0. 0. 0.
      1.49253728e-02 0. 1.49253728e-02 1.49253728e-02 1.49253728e-02 0.
      1.49253728e-02 1.49253728e-02 1.49253728e-02 0. 0. 0. 0. 0.
      5.97014911e-02</_>
    <_>
      0. 0. 1.99999996e-02 0. 0. 3.99999991e-02 0. 0. 0. 0. 0. 0. 0.
      1.99999996e-02 0. 1.99999996e-02 0. 0. 0. 0. 1.99999996e-02 0. 0.
      0. 1.99999996e-02 0. 1.99999996e-02 3.99999991e-02 0. 0. 0. 0. 0.
      0. 3.99999991e-02 0. 0. 0. 0. 0. 0. 0. 3.99999991e-02 0. 0. 0. 0.
      0. 0. 0. 0. 0. 0. 0. 0. 0. 0. 3.99999991e-02 0. 0. 0. 0.
      3.99999991e-02 1.99999996e-02 0. 0. 0. 0. 0. 0. 1.99999996e-02 0.
      0. 0. 0. 0. 0. 0. 0. 0. 0. 0. 1.99999996e-02 0. 0. 0. 0.
      1.99999996e-02 0. 0. 0. 3.99999991e-02 0. 0. 0. 0. 0.
      3.99999991e-02 0. 0. 0. 0. 0. 0. 0. 0. 0. 0. 0. 0. 1.99999996e-02
      0. 0. 1.99999996e-02 0. 0. 0. 1.99999996e-02 0. 0. 1.99999996e-02
      0. 1.99999996e-02 0. 0. 0. 0. 0. 1.99999996e-02 0. 0. 0. 0. 0.
      1.99999996e-02 0. 0. 0. 0. 0. 0. 0. 1.99999996e-02 0.
      1.99999996e-02 0. 0. 0. 0. 0. 0. 0. 1.99999996e-02 0. 0. 0.
      1.99999996e-02 0. 0. 1.99999996e-02 0. 0. 1.99999996e-02
      1.99999996e-02 0. 0. 0. 0. 0. 0. 0. 0. 0. 0. 0. 1.99999996e-02 0.
      0. 0. 0. 1.99999996e-02 0. 3.99999991e-02 0. 1.99999996e-02
      1.99999996e-02 0. 0. 0. 0. 1.99999996e-02 0. 0. 1.99999996e-02
      1.99999996e-02 0. 1.99999996e-02 0. 0. 0.</_>
    <_>
      0. 0. 0. 0. 0. 1.99999996e-02 0. 0. 0. 0. 0. 0. 0. 1.99999996e-02
      0. 0. 1.99999996e-02 0. 0. 0. 0. 1.99999996e-02 1.99999996e-02
      1.99999996e-02 1.99999996e-02 0. 0. 0. 1.99999996e-02 0. 0. 0.
      3.99999991e-02 0. 0. 0. 3.99999991e-02 0. 0. 1.99999996e-02 0. 0.
      0. 0. 0. 0. 0. 0. 0. 0. 0. 0. 0. 0. 0. 0. 1.99999996e-02 0. 0. 0.
      0. 0. 0. 0. 0. 0. 0. 0. 0. 0. 0. 0. 0. 0. 1.99999996e-02
      1.99999996e-02 0. 1.99999996e-02 0. 0. 0. 0. 0. 0. 1.99999996e-02
      0. 0. 0. 0. 0. 0. 0. 0. 0. 0. 0. 0. 0. 0. 0. 0. 0. 1.99999996e-02
      1.99999996e-02 0. 0. 0. 0. 0. 1.99999996e-02 0. 0. 0. 0. 0. 0.
      3.99999991e-02 0. 0. 0. 1.99999996e-02 1.99999996e-02 0. 0. 0.
      1.99999996e-02 0. 0. 0. 1.99999996e-02 0. 1.99999996e-02
      1.99999996e-02 0. 1.99999996e-02 1.99999996e-02 3.99999991e-02 0.
      0. 1.99999996e-02 0. 0. 0. 1.99999996e-02 0. 0. 0. 0.
      1.99999996e-02 0. 0. 0. 1.99999996e-02 0. 1.99999996e-02
      1.99999996e-02 0. 0. 0. 0. 0. 0. 1.99999996e-02 0. 0.
      1.99999996e-02 0. 0. 0. 0. 1.99999996e-02 0. 3.99999991e-02
      1.99999996e-02 1.99999996e-02 0. 0. 0. 1.99999996e-02 0.
      1.99999996e-02 0. 1.99999996e-02 0. 1.99999996e-02 0. 0. 0. 0. 0.
      0. 0. 0. 0. 0. 0. 0. 0. 0. 0.</_>
    <_>
      1.26582282e-02 0. 0. 1.26582282e-02 0. 1.26582282e-02 0. 0. 0.
      1.26582282e-02 0. 0. 2.53164563e-02 0. 2.53164563e-02
      1.26582282e-02 0. 0. 1.26582282e-02 0. 0. 0. 0. 1.26582282e-02 0.
      0. 0. 0. 1.26582282e-02 0. 0. 0. 0. 0. 0. 0. 1.26582282e-02 0. 0.
      0. 2.53164563e-02 0. 0. 2.53164563e-02 0. 1.26582282e-02
      1.26582282e-02 0. 0. 0. 0. 0. 0. 0. 1.26582282e-02 1.26582282e-02
      0. 0. 0. 0. 0. 0. 0. 1.26582282e-02 0. 1.26582282e-02
      1.26582282e-02 0. 1.26582282e-02 0. 0. 0. 0. 0. 0. 1.26582282e-02
      0. 1.26582282e-02 1.26582282e-02 0. 0. 1.26582282e-02
      1.26582282e-02 0. 0. 0. 1.26582282e-02 1.26582282e-02 0.
      1.26582282e-02 0. 1.26582282e-02 0. 2.53164563e-02 0.
      1.26582282e-02 0. 0. 2.53164563e-02 0. 0. 1.26582282e-02 0.
      1.26582282e-02 0. 0. 0. 1.26582282e-02 0. 0. 1.26582282e-02 0. 0.
      0. 0. 1.26582282e-02 1.26582282e-02 0. 1.26582282e-02
      1.26582282e-02 1.26582282e-02 0. 0. 1.26582282e-02 3.79746854e-02
      1.26582282e-02 0. 0. 0. 0. 0. 1.26582282e-02 0. 0. 0. 0.
      1.26582282e-02 0. 0. 0. 0. 1.26582282e-02 0. 0. 1.26582282e-02
      1.26582282e-02 1.26582282e-02 0. 0. 0. 0. 1.26582282e-02
      1.26582282e-02 0. 0. 0. 0. 0. 1.26582282e-02 1.26582282e-02
      1.26582282e-02 0. 0. 0. 0. 0. 0. 0. 0. 1.26582282e-02
      2.53164563e-02 0. 0. 1.26582282e-02 0. 0. 0. 0. 1.26582282e-02 0.
      0. 0. 0. 1.26582282e-02 0. 0. 1.26582282e-02 0. 0. 0.
      5.06329127e-02 0. 1.26582282e-02 0. 0. 1.26582282e-02 0.
      2.53164563e-02 0. 0.</_>
    <_>
      0. 0. 0. 0. 0. 0. 0. 0. 0. 0. 0. 0. 3.03030312e-02 0.
      1.51515156e-02 3.03030312e-02 0. 1.51515156e-02 1.51515156e-02 0.
      0. 4.54545468e-02 0. 0. 0. 0. 0. 1.51515156e-02 0. 0. 0. 0. 0.
      1.51515156e-02 0. 1.51515156e-02 0. 1.51515156e-02 0. 0. 0.
      1.51515156e-02 1.51515156e-02 0. 3.03030312e-02 0. 0.
      7.57575780e-02 0. 0. 1.51515156e-02 0. 0. 0. 0. 1.51515156e-02 0.
      0. 1.51515156e-02 0. 0. 0. 0. 1.51515156e-02 0. 1.51515156e-02
      1.51515156e-02 0. 0. 3.03030312e-02 0. 0. 0. 0. 0. 1.51515156e-02
      0. 3.03030312e-02 1.51515156e-02 0. 0. 0. 0. 0. 0. 0. 0. 0. 0. 0.
      0. 0. 0. 0. 0. 0. 0. 0. 1.51515156e-02 0. 0. 0. 0. 0. 0. 0. 0.
      1.51515156e-02 0. 0. 0. 0. 0. 0. 0. 0. 0. 0. 0. 0. 1.51515156e-02
      0. 0. 0. 0. 0. 0. 0. 1.51515156e-02 1.51515156e-02 0. 0.
      1.51515156e-02 3.03030312e-02 0. 0. 1.21212125e-01 0.
      1.51515156e-02 1.51515156e-02 0. 0. 1.51515156e-02 0. 0. 0.
      1.51515156e-02 0. 1.51515156e-02 0. 0. 0. 0. 0. 0. 0. 0.
      6.06060624e-02 0. 0. 0. 0. 0. 0. 0. 1.51515156e-02 0. 0. 0.
      1.51515156e-02 0. 0. 0. 0. 0. 0. 0. 0. 0. 0. 0. 0. 0. 0. 0. 0.
      1.51515156e-02 1.51515156e-02 0. 0. 0. 1.51515156e-02 0. 0. 0. 0.
      0. 1.51515156e-02 0. 0.</_>
    <_>
      0. 0. 2.32558139e-02 4.65116277e-02 0. 2.32558139e-02 0. 0. 0. 0.
      2.32558139e-02 0. 0. 0. 0. 0. 0. 0. 0. 0. 0. 0. 0. 0.
      2.32558139e-02 0. 0. 0. 0. 0. 4.65116277e-02 0. 2.32558139e-02 0.
      0. 0. 0. 0. 0. 2.32558139e-02 0. 0. 0. 0. 0. 0. 0. 2.32558139e-02
      2.32558139e-02 0. 0. 0. 0. 0. 0. 0. 0. 2.32558139e-02 0. 0. 0. 0.
      0. 0. 0. 0. 0. 2.32558139e-02 0. 0. 0. 0. 4.65116277e-02 0. 0. 0.
      0. 0. 0. 2.32558139e-02 0. 0. 0. 0. 0. 0. 0. 0. 0. 0. 0. 0. 0. 0.
      2.32558139e-02 0. 0. 0. 0. 0. 0. 0. 2.32558139e-02 0. 0. 0. 0. 0.
      2.32558139e-02 0. 0. 2.32558139e-02 0. 0. 0. 0. 0. 0.
      2.32558139e-02 2.32558139e-02 0. 4.65116277e-02 0. 0. 0. 0. 0. 0.
      0. 0. 2.32558139e-02 0. 0. 0. 0. 0. 2.32558139e-02 0. 0.
      2.32558139e-02 0. 2.32558139e-02 0. 2.32558139e-02 0. 0. 0.
      2.32558139e-02 2.32558139e-02 0. 0. 0. 0. 0. 2.32558139e-02 0.
      2.32558139e-02 0. 0. 0. 0. 0. 0. 4.65116277e-02 0. 0. 0.
      2.32558139e-02 0. 0. 0. 2.32558139e-02 0. 0. 0. 0. 2.32558139e-02
      0. 0. 0. 0. 2.32558139e-02 2.32558139e-02 0. 0. 2.32558139e-02 0.
      2.32558139e-02 0. 0. 0. 0. 0. 0. 0. 0. 0. 0. 0. 0.</_>
    <_>
      0. 0. 0. 0. 0. 2.63157897e-02 0. 2.63157897e-02 0. 0. 0. 0. 0. 0.
      2.63157897e-02 0. 0. 0. 0. 0. 0. 0. 0. 5.26315793e-02 0. 0. 0. 0.
      0. 0. 0. 0. 0. 0. 0. 5.26315793e-02 2.63157897e-02 0. 0.
      2.63157897e-02 0. 0. 0. 0. 0. 0. 0. 0. 0. 0. 0. 0. 2.63157897e-02
      2.63157897e-02 0. 0. 0. 0. 0. 0. 0. 0. 0. 0. 0. 0. 0. 0. 0. 0. 0.
      0. 0. 0. 0. 0. 2.63157897e-02 0. 0. 0. 0. 0. 0. 2.63157897e-02
      2.63157897e-02 0. 0. 0. 0. 0. 0. 2.63157897e-02 0. 0. 0. 0. 0.
      2.63157897e-02 0. 5.26315793e-02 0. 0. 0. 0. 0. 0. 0. 0. 0. 0. 0.
      0. 0. 0. 0. 0. 0. 0. 0. 0. 0. 2.63157897e-02 0. 0. 2.63157897e-02
      0. 0. 0. 0. 2.63157897e-02 0. 0. 0. 0. 0. 2.63157897e-02
      2.63157897e-02 0. 2.63157897e-02 0. 0. 0. 0. 2.63157897e-02
      2.63157897e-02 0. 2.63157897e-02 2.63157897e-02 0. 0. 0. 0.
      2.63157897e-02 0. 0. 0. 0. 0. 0. 0. 0. 0. 0. 0. 0. 0. 0. 0. 0. 0.
      0. 5.26315793e-02 5.26315793e-02 2.63157897e-02 0. 0. 0. 0. 0. 0.
      7.89473653e-02 0. 0. 0. 0. 0. 0. 2.63157897e-02 0. 0. 0. 0. 0. 0.
      0. 0. 0. 0. 0. 0.</_>
    <_>
      0. 0. 0. 0. 0. 2.08333340e-02 0. 0. 0. 0. 0. 0. 2.08333340e-02
      2.08333340e-02 2.08333340e-02 2.08333340e-02 0. 2.08333340e-02 0.
      0. 0. 0. 0. 0. 2.08333340e-02 0. 0. 0. 0. 2.08333340e-02 0.
      2.08333340e-02 0. 0. 0. 0. 0. 0. 0. 0. 0. 0. 0. 0. 0. 0. 0.
      2.08333340e-02 0. 4.16666679e-02 0. 0. 0. 0. 0. 0. 0. 0. 0.
      2.08333340e-02 0. 2.08333340e-02 0. 0. 0. 0. 0. 0. 0. 0. 0. 0.
      2.08333340e-02 0. 0. 0. 0. 0. 4.16666679e-02 2.08333340e-02
      2.08333340e-02 4.16666679e-02 0. 0. 0. 0. 0. 4.16666679e-02 0. 0.
      0. 0. 0. 0. 2.08333340e-02 2.08333340e-02 0. 0. 0. 6.25000000e-02
      0. 0. 0. 2.08333340e-02 0. 2.08333340e-02 2.08333340e-02
      2.08333340e-02 0. 0. 2.08333340e-02 0. 0. 0. 0. 0. 0.
      2.08333340e-02 0. 0. 0. 0. 0. 2.08333340e-02 0. 0. 0. 0. 0. 0.
      2.08333340e-02 0. 0. 0. 0. 0. 0. 2.08333340e-02 0. 0. 0. 0. 0. 0.
      2.08333340e-02 0. 0. 0. 2.08333340e-02 0. 4.16666679e-02 0.
      2.08333340e-02 0. 0. 8.33333358e-02 0. 0. 0. 2.08333340e-02 0. 0.
      0. 0. 0. 0. 0. 0. 0. 0. 0. 0. 0. 0. 0. 0. 0. 0. 0. 0. 0. 0. 0. 0.
      0. 0. 0. 0. 0. 0. 0. 0. 0. 0. 0. 2.08333340e-02 0. 0. 0. 0.</_>
    <_>
      0. 0. 0. 0. 0. 0. 0. 1.75438598e-02 0. 0. 0. 0. 1.75438598e-02 0.
      1.75438598e-02 0. 0. 0. 0. 0. 0. 0. 0. 0. 0. 0. 0. 0. 0.
      1.75438598e-02 0. 0. 1.75438598e-02 0. 1.75438598e-02
      1.75438598e-02 0. 1.75438598e-02 0. 0. 0. 0. 3.50877196e-02
      1.75438598e-02 0. 0. 1.75438598e-02 0. 0. 1.75438598e-02 0.
      1.75438598e-02 0. 3.50877196e-02 0. 0. 0. 0. 0. 0. 0. 0. 0. 0. 0.
      0. 3.50877196e-02 3.50877196e-02 1.75438598e-02 0. 3.50877196e-02
      0. 0. 0. 0. 0. 0. 0. 0. 0. 0. 0. 1.75438598e-02 0. 0. 0. 0.
      3.50877196e-02 0. 0. 0. 0. 1.75438598e-02 0. 0. 0. 0. 0.
      1.75438598e-02 0. 0. 0. 0. 0. 0. 0. 0. 0. 0. 1.75438598e-02
      1.75438598e-02 0. 0. 0. 0. 1.75438598e-02 0. 0. 0. 3.50877196e-02
      0. 0. 3.50877196e-02 0. 0. 1.75438598e-02 1.75438598e-02 0. 0. 0.
      0. 1.75438598e-02 0. 0. 0. 1.75438598e-02 0. 0. 0. 0. 0. 0. 0.
      1.75438598e-02 3.50877196e-02 0. 0. 0. 1.75438598e-02 0.
      1.75438598e-02 0. 0. 3.50877196e-02 0. 0. 0. 0. 1.75438598e-02 0.
      0. 0. 0. 1.75438598e-02 1.75438598e-02 0. 0. 0. 1.75438598e-02 0.
      1.75438598e-02 0. 0. 1.75438598e-02 0. 0. 0. 0. 0. 0. 0. 0.
      1.75438598e-02 0. 0. 0. 0. 0. 1.75438598e-02 0. 1.75438598e-02 0.
      0. 0. 1.75438598e-02 1.75438598e-02 0. 0. 0. 0.</_>
    <_>
      0. 0. 0. 1.38888890e-02 1.38888890e-02 0. 1.38888890e-02
      1.38888890e-02 0. 0. 0. 0. 0. 0. 0. 0. 2.77777780e-02 0. 0. 0. 0.
      0. 0. 1.38888890e-02 1.38888890e-02 0. 0. 1.38888890e-02 0. 0.
      1.38888890e-02 0. 0. 1.38888890e-02 1.38888890e-02 0.
      1.38888890e-02 0. 0. 0. 1.38888890e-02 0. 0. 0. 0. 1.38888890e-02
      2.77777780e-02 0. 2.77777780e-02 0. 0. 0. 0. 0. 1.38888890e-02 0.
      0. 0. 1.38888890e-02 0. 0. 0. 0. 0. 0. 0. 1.38888890e-02 0.
      1.38888890e-02 1.38888890e-02 0. 0. 0. 1.38888890e-02 0.
      1.38888890e-02 0. 0. 0. 2.77777780e-02 0. 0. 1.38888890e-02 0.
      2.77777780e-02 0. 0. 1.38888890e-02 0. 0. 0. 0. 0. 0. 0. 0.
      1.38888890e-02 0. 0. 0. 0. 0. 0. 0. 0. 0. 0. 1.38888890e-02 0.
      1.38888890e-02 0. 0. 0. 0. 0. 0. 1.38888890e-02 2.77777780e-02 0.
      0. 0. 1.38888890e-02 2.77777780e-02 1.38888890e-02 1.38888890e-02
      1.38888890e-02 1.38888890e-02 0. 0. 1.38888890e-02 0. 0. 0.
      1.38888890e-02 0. 1.38888890e-02 0. 0. 0. 0. 0. 0. 1.38888890e-02
      1.38888890e-02 0. 0. 2.77777780e-02 0. 1.38888890e-02
      1.38888890e-02 1.38888890e-02 2.77777780e-02 0. 0. 0. 0. 0. 0. 0.
      0. 2.77777780e-02 0. 0. 0. 1.38888890e-02 1.38888890e-02 0. 0. 0.
      0. 1.38888890e-02 1.38888890e-02 0. 2.77777780e-02 1.38888890e-02
      0. 0. 0. 0. 0. 0. 0. 1.38888890e-02 0. 0. 0. 0. 0. 0. 0. 0. 0. 0.
      0. 0. 0. 2.77777780e-02 1.38888890e-02 0. 2.77777780e-02</_>
    <_>
      0. 0. 1.42857144e-02 2.85714287e-02 0. 1.42857144e-02 0.
      1.42857144e-02 0. 0. 0. 0. 1.42857144e-02 0. 0. 0. 0.
      1.42857144e-02 0. 0. 0. 1.42857144e-02 0. 1.42857144e-02 0. 0. 0.
      0. 0. 0. 1.42857144e-02 1.42857144e-02 0. 0. 0. 0. 0. 0. 0. 0.
      1.42857144e-02 0. 4.28571440e-02 0. 0. 0. 0. 0. 0. 2.85714287e-02
      2.85714287e-02 0. 1.42857144e-02 0. 2.85714287e-02 0. 0. 0.
      1.42857144e-02 1.42857144e-02 0. 0. 1.42857144e-02 1.42857144e-02
      0. 0. 0. 0. 2.85714287e-02 0. 0. 0. 4.28571440e-02 0. 0. 0. 0. 0.
      0. 0. 0. 0. 0. 0. 1.42857144e-02 0. 0. 1.42857144e-02 0. 0. 0. 0.
      0. 0. 1.42857144e-02 0. 1.42857144e-02 1.42857144e-02 0. 0.
      1.42857144e-02 1.42857144e-02 1.42857144e-02 1.42857144e-02 0.
      1.42857144e-02 1.42857144e-02 1.42857144e-02 0. 1.42857144e-02
      1.42857144e-02 0. 0. 0. 0. 0. 1.42857144e-02 0. 0. 0. 0. 0. 0. 0.
      0. 0. 1.42857144e-02 0. 1.42857144e-02 0. 0. 0. 0. 0. 0.
      1.42857144e-02 0. 1.42857144e-02 0. 0. 0. 0. 0. 0. 0.
      1.42857144e-02 0. 0. 0. 0. 0. 1.42857144e-02 0. 4.28571440e-02
      1.42857144e-02 0. 0. 1.42857144e-02 0. 0. 0. 0. 0. 2.85714287e-02
      0. 0. 0. 0. 0. 0. 2.85714287e-02 0. 0. 0. 0. 0. 0. 1.42857144e-02
      0. 0. 0. 0. 0. 0. 0. 0. 2.85714287e-02 0. 1.42857144e-02 0. 0.
      1.42857144e-02 1.42857144e-02 0. 0. 0. 0. 0. 0. 4.28571440e-02</_>
    <_>
      0. 1.72413792e-02 0. 1.72413792e-02 0. 1.72413792e-02 0.
      1.72413792e-02 0. 0. 1.72413792e-02 1.72413792e-02 5.17241359e-02
      0. 0. 0. 0. 0. 1.72413792e-02 0. 0. 0. 0. 0. 0. 0. 0. 0. 0. 0. 0.
      0. 0. 1.72413792e-02 0. 1.72413792e-02 0. 0. 1.72413792e-02 0. 0.
      0. 1.72413792e-02 0. 0. 0. 0. 0. 0. 0. 0. 1.72413792e-02
      1.72413792e-02 0. 3.44827585e-02 0. 0. 0. 0. 0. 0. 0.
      1.72413792e-02 3.44827585e-02 0. 0. 0. 3.44827585e-02 0. 0. 0. 0.
      0. 0. 0. 0. 0. 1.72413792e-02 1.72413792e-02 0. 0. 0.
      1.72413792e-02 0. 0. 0. 0. 0. 0. 0. 1.72413792e-02 0. 0. 0. 0.
      1.72413792e-02 0. 1.72413792e-02 0. 0. 0. 0. 1.72413792e-02 0. 0.
      0. 0. 1.72413792e-02 0. 0. 0. 0. 1.72413792e-02 0. 0. 0. 0. 0. 0.
      1.72413792e-02 3.44827585e-02 1.72413792e-02 1.72413792e-02 0. 0.
      0. 0. 0. 0. 0. 0. 0. 1.72413792e-02 1.72413792e-02 0. 0.
      6.89655170e-02 1.72413792e-02 0. 0. 0. 1.72413792e-02 0.
      1.72413792e-02 1.72413792e-02 0. 0. 0. 0. 0. 0. 0. 0. 0.
      1.72413792e-02 0. 0. 0. 0. 0. 1.72413792e-02 0. 1.72413792e-02 0.
      0. 0. 0. 1.72413792e-02 0. 0. 0. 0. 0. 0. 0. 0. 0. 0. 0. 0. 0. 0.
      1.72413792e-02 0. 0. 0. 0. 1.72413792e-02 0. 0. 1.72413792e-02 0.
      0. 0. 3.44827585e-02 1.72413792e-02 1.72413792e-02 0. 0. 0.</_>
    <_>
      1.81818176e-02 0. 0. 3.63636352e-02 0. 0. 0. 1.81818176e-02 0. 0.
      0. 0. 0. 0. 1.81818176e-02 0. 0. 0. 1.81818176e-02 0. 0. 0. 0. 0.
      3.63636352e-02 0. 0. 1.81818176e-02 1.81818176e-02 0. 0. 0. 0.
      1.81818176e-02 0. 1.81818176e-02 3.63636352e-02 3.63636352e-02 0.
      1.81818176e-02 3.63636352e-02 0. 0. 0. 0. 0. 0. 0. 0. 0. 0. 0.
      1.81818176e-02 0. 0. 0. 0. 3.63636352e-02 1.81818176e-02 0. 0. 0.
      0. 0. 0. 0. 0. 1.81818176e-02 0. 0. 0. 0. 0. 0. 0. 0. 0.
      1.81818176e-02 0. 1.81818176e-02 0. 0. 3.63636352e-02 0. 0. 0. 0.
      3.63636352e-02 0. 3.63636352e-02 0. 0. 0. 0. 3.63636352e-02 0.
      3.63636352e-02 1.81818176e-02 0. 1.81818176e-02 0. 0. 0. 0. 0. 0.
      1.81818176e-02 0. 0. 0. 0. 0. 0. 0. 0. 0. 0. 0. 1.81818176e-02 0.
      0. 0. 0. 0. 0. 0. 0. 0. 0. 0. 0. 0. 0. 0. 0. 0. 5.45454547e-02 0.
      0. 0. 0. 1.81818176e-02 0. 0. 0. 0. 0. 0. 0. 0. 0. 0. 0. 0. 0. 0.
      1.81818176e-02 1.81818176e-02 0. 0. 0. 0. 0. 0. 0. 0. 0. 0. 0.
      1.81818176e-02 0. 0. 1.81818176e-02 0. 3.63636352e-02 0.
      1.81818176e-02 0. 0. 0. 1.81818176e-02 0. 0. 0. 0. 0. 0. 0. 0. 0.
      0. 1.81818176e-02 0. 0. 1.81818176e-02 0. 0. 0. 0. 1.81818176e-02</_>
    <_>
      0. 0. 0. 2.94117648e-02 0. 0. 0. 0. 0. 0. 0. 0. 1.47058824e-02 0.
      0. 1.47058824e-02 0. 0. 0. 0. 1.47058824e-02 0. 0. 2.94117648e-02
      0. 2.94117648e-02 0. 0. 0. 0. 1.47058824e-02 1.47058824e-02 0. 0.
      1.47058824e-02 1.47058824e-02 1.47058824e-02 1.47058824e-02 0. 0.
      0. 0. 0. 0. 1.47058824e-02 0. 0. 0. 2.94117648e-02 0. 0. 0.
      2.94117648e-02 1.47058824e-02 0. 0. 0. 0. 0. 0. 0. 0.
      1.47058824e-02 0. 2.94117648e-02 0. 0. 0. 0. 0. 1.47058824e-02 0.
      1.47058824e-02 0. 0. 1.47058824e-02 0. 0. 0. 0. 0. 0. 0. 0.
